FANN_FLO_2.1
num_layers=3
learning_rate=0.700000
connection_rate=1.000000
network_type=0
learning_momentum=0.000000
training_algorithm=2
train_error_function=1
train_stop_function=0
cascade_output_change_fraction=0.010000
quickprop_decay=-0.000100
quickprop_mu=1.750000
rprop_increase_factor=1.200000
rprop_decrease_factor=0.500000
rprop_delta_min=0.000000
rprop_delta_max=50.000000
rprop_delta_zero=0.100000
cascade_output_stagnation_epochs=12
cascade_candidate_change_fraction=0.010000
cascade_candidate_stagnation_epochs=12
cascade_max_out_epochs=150
cascade_max_cand_epochs=150
cascade_num_candidate_groups=2
bit_fail_limit=3.49999994039535522461e-01
cascade_candidate_limit=1.00000000000000000000e+03
cascade_weight_multiplier=4.00000005960464477539e-01
cascade_activation_functions_count=10
cascade_activation_functions=3 5 7 8 10 11 14 15 16 17 
cascade_activation_steepnesses_count=4
cascade_activation_steepnesses=2.50000000000000000000e-01 5.00000000000000000000e-01 7.50000000000000000000e-01 1.00000000000000000000e+00 
layer_sizes=162 101 2 
scale_included=0
neurons (num_inputs, activation_function, activation_steepness)=(0, 0, 0.00000000000000000000e+00) (0, 0, 0.00000000000000000000e+00) (0, 0, 0.00000000000000000000e+00) (0, 0, 0.00000000000000000000e+00) (0, 0, 0.00000000000000000000e+00) (0, 0, 0.00000000000000000000e+00) (0, 0, 0.00000000000000000000e+00) (0, 0, 0.00000000000000000000e+00) (0, 0, 0.00000000000000000000e+00) (0, 0, 0.00000000000000000000e+00) (0, 0, 0.00000000000000000000e+00) (0, 0, 0.00000000000000000000e+00) (0, 0, 0.00000000000000000000e+00) (0, 0, 0.00000000000000000000e+00) (0, 0, 0.00000000000000000000e+00) (0, 0, 0.00000000000000000000e+00) (0, 0, 0.00000000000000000000e+00) (0, 0, 0.00000000000000000000e+00) (0, 0, 0.00000000000000000000e+00) (0, 0, 0.00000000000000000000e+00) (0, 0, 0.00000000000000000000e+00) (0, 0, 0.00000000000000000000e+00) (0, 0, 0.00000000000000000000e+00) (0, 0, 0.00000000000000000000e+00) (0, 0, 0.00000000000000000000e+00) (0, 0, 0.00000000000000000000e+00) (0, 0, 0.00000000000000000000e+00) (0, 0, 0.00000000000000000000e+00) (0, 0, 0.00000000000000000000e+00) (0, 0, 0.00000000000000000000e+00) (0, 0, 0.00000000000000000000e+00) (0, 0, 0.00000000000000000000e+00) (0, 0, 0.00000000000000000000e+00) (0, 0, 0.00000000000000000000e+00) (0, 0, 0.00000000000000000000e+00) (0, 0, 0.00000000000000000000e+00) (0, 0, 0.00000000000000000000e+00) (0, 0, 0.00000000000000000000e+00) (0, 0, 0.00000000000000000000e+00) (0, 0, 0.00000000000000000000e+00) (0, 0, 0.00000000000000000000e+00) (0, 0, 0.00000000000000000000e+00) (0, 0, 0.00000000000000000000e+00) (0, 0, 0.00000000000000000000e+00) (0, 0, 0.00000000000000000000e+00) (0, 0, 0.00000000000000000000e+00) (0, 0, 0.00000000000000000000e+00) (0, 0, 0.00000000000000000000e+00) (0, 0, 0.00000000000000000000e+00) (0, 0, 0.00000000000000000000e+00) (0, 0, 0.00000000000000000000e+00) (0, 0, 0.00000000000000000000e+00) (0, 0, 0.00000000000000000000e+00) (0, 0, 0.00000000000000000000e+00) (0, 0, 0.00000000000000000000e+00) (0, 0, 0.00000000000000000000e+00) (0, 0, 0.00000000000000000000e+00) (0, 0, 0.00000000000000000000e+00) (0, 0, 0.00000000000000000000e+00) (0, 0, 0.00000000000000000000e+00) (0, 0, 0.00000000000000000000e+00) (0, 0, 0.00000000000000000000e+00) (0, 0, 0.00000000000000000000e+00) (0, 0, 0.00000000000000000000e+00) (0, 0, 0.00000000000000000000e+00) (0, 0, 0.00000000000000000000e+00) (0, 0, 0.00000000000000000000e+00) (0, 0, 0.00000000000000000000e+00) (0, 0, 0.00000000000000000000e+00) (0, 0, 0.00000000000000000000e+00) (0, 0, 0.00000000000000000000e+00) (0, 0, 0.00000000000000000000e+00) (0, 0, 0.00000000000000000000e+00) (0, 0, 0.00000000000000000000e+00) (0, 0, 0.00000000000000000000e+00) (0, 0, 0.00000000000000000000e+00) (0, 0, 0.00000000000000000000e+00) (0, 0, 0.00000000000000000000e+00) (0, 0, 0.00000000000000000000e+00) (0, 0, 0.00000000000000000000e+00) (0, 0, 0.00000000000000000000e+00) (0, 0, 0.00000000000000000000e+00) (0, 0, 0.00000000000000000000e+00) (0, 0, 0.00000000000000000000e+00) (0, 0, 0.00000000000000000000e+00) (0, 0, 0.00000000000000000000e+00) (0, 0, 0.00000000000000000000e+00) (0, 0, 0.00000000000000000000e+00) (0, 0, 0.00000000000000000000e+00) (0, 0, 0.00000000000000000000e+00) (0, 0, 0.00000000000000000000e+00) (0, 0, 0.00000000000000000000e+00) (0, 0, 0.00000000000000000000e+00) (0, 0, 0.00000000000000000000e+00) (0, 0, 0.00000000000000000000e+00) (0, 0, 0.00000000000000000000e+00) (0, 0, 0.00000000000000000000e+00) (0, 0, 0.00000000000000000000e+00) (0, 0, 0.00000000000000000000e+00) (0, 0, 0.00000000000000000000e+00) (0, 0, 0.00000000000000000000e+00) (0, 0, 0.00000000000000000000e+00) (0, 0, 0.00000000000000000000e+00) (0, 0, 0.00000000000000000000e+00) (0, 0, 0.00000000000000000000e+00) (0, 0, 0.00000000000000000000e+00) (0, 0, 0.00000000000000000000e+00) (0, 0, 0.00000000000000000000e+00) (0, 0, 0.00000000000000000000e+00) (0, 0, 0.00000000000000000000e+00) (0, 0, 0.00000000000000000000e+00) (0, 0, 0.00000000000000000000e+00) (0, 0, 0.00000000000000000000e+00) (0, 0, 0.00000000000000000000e+00) (0, 0, 0.00000000000000000000e+00) (0, 0, 0.00000000000000000000e+00) (0, 0, 0.00000000000000000000e+00) (0, 0, 0.00000000000000000000e+00) (0, 0, 0.00000000000000000000e+00) (0, 0, 0.00000000000000000000e+00) (0, 0, 0.00000000000000000000e+00) (0, 0, 0.00000000000000000000e+00) (0, 0, 0.00000000000000000000e+00) (0, 0, 0.00000000000000000000e+00) (0, 0, 0.00000000000000000000e+00) (0, 0, 0.00000000000000000000e+00) (0, 0, 0.00000000000000000000e+00) (0, 0, 0.00000000000000000000e+00) (0, 0, 0.00000000000000000000e+00) (0, 0, 0.00000000000000000000e+00) (0, 0, 0.00000000000000000000e+00) (0, 0, 0.00000000000000000000e+00) (0, 0, 0.00000000000000000000e+00) (0, 0, 0.00000000000000000000e+00) (0, 0, 0.00000000000000000000e+00) (0, 0, 0.00000000000000000000e+00) (0, 0, 0.00000000000000000000e+00) (0, 0, 0.00000000000000000000e+00) (0, 0, 0.00000000000000000000e+00) (0, 0, 0.00000000000000000000e+00) (0, 0, 0.00000000000000000000e+00) (0, 0, 0.00000000000000000000e+00) (0, 0, 0.00000000000000000000e+00) (0, 0, 0.00000000000000000000e+00) (0, 0, 0.00000000000000000000e+00) (0, 0, 0.00000000000000000000e+00) (0, 0, 0.00000000000000000000e+00) (0, 0, 0.00000000000000000000e+00) (0, 0, 0.00000000000000000000e+00) (0, 0, 0.00000000000000000000e+00) (0, 0, 0.00000000000000000000e+00) (0, 0, 0.00000000000000000000e+00) (0, 0, 0.00000000000000000000e+00) (0, 0, 0.00000000000000000000e+00) (0, 0, 0.00000000000000000000e+00) (0, 0, 0.00000000000000000000e+00) (0, 0, 0.00000000000000000000e+00) (0, 0, 0.00000000000000000000e+00) (0, 0, 0.00000000000000000000e+00) (0, 0, 0.00000000000000000000e+00) (0, 0, 0.00000000000000000000e+00) (0, 0, 0.00000000000000000000e+00) (162, 4, 5.00000000000000000000e-01) (162, 4, 5.00000000000000000000e-01) (162, 4, 5.00000000000000000000e-01) (162, 4, 5.00000000000000000000e-01) (162, 4, 5.00000000000000000000e-01) (162, 4, 5.00000000000000000000e-01) (162, 4, 5.00000000000000000000e-01) (162, 4, 5.00000000000000000000e-01) (162, 4, 5.00000000000000000000e-01) (162, 4, 5.00000000000000000000e-01) (162, 4, 5.00000000000000000000e-01) (162, 4, 5.00000000000000000000e-01) (162, 4, 5.00000000000000000000e-01) (162, 4, 5.00000000000000000000e-01) (162, 4, 5.00000000000000000000e-01) (162, 4, 5.00000000000000000000e-01) (162, 4, 5.00000000000000000000e-01) (162, 4, 5.00000000000000000000e-01) (162, 4, 5.00000000000000000000e-01) (162, 4, 5.00000000000000000000e-01) (162, 4, 5.00000000000000000000e-01) (162, 4, 5.00000000000000000000e-01) (162, 4, 5.00000000000000000000e-01) (162, 4, 5.00000000000000000000e-01) (162, 4, 5.00000000000000000000e-01) (162, 4, 5.00000000000000000000e-01) (162, 4, 5.00000000000000000000e-01) (162, 4, 5.00000000000000000000e-01) (162, 4, 5.00000000000000000000e-01) (162, 4, 5.00000000000000000000e-01) (162, 4, 5.00000000000000000000e-01) (162, 4, 5.00000000000000000000e-01) (162, 4, 5.00000000000000000000e-01) (162, 4, 5.00000000000000000000e-01) (162, 4, 5.00000000000000000000e-01) (162, 4, 5.00000000000000000000e-01) (162, 4, 5.00000000000000000000e-01) (162, 4, 5.00000000000000000000e-01) (162, 4, 5.00000000000000000000e-01) (162, 4, 5.00000000000000000000e-01) (162, 4, 5.00000000000000000000e-01) (162, 4, 5.00000000000000000000e-01) (162, 4, 5.00000000000000000000e-01) (162, 4, 5.00000000000000000000e-01) (162, 4, 5.00000000000000000000e-01) (162, 4, 5.00000000000000000000e-01) (162, 4, 5.00000000000000000000e-01) (162, 4, 5.00000000000000000000e-01) (162, 4, 5.00000000000000000000e-01) (162, 4, 5.00000000000000000000e-01) (162, 4, 5.00000000000000000000e-01) (162, 4, 5.00000000000000000000e-01) (162, 4, 5.00000000000000000000e-01) (162, 4, 5.00000000000000000000e-01) (162, 4, 5.00000000000000000000e-01) (162, 4, 5.00000000000000000000e-01) (162, 4, 5.00000000000000000000e-01) (162, 4, 5.00000000000000000000e-01) (162, 4, 5.00000000000000000000e-01) (162, 4, 5.00000000000000000000e-01) (162, 4, 5.00000000000000000000e-01) (162, 4, 5.00000000000000000000e-01) (162, 4, 5.00000000000000000000e-01) (162, 4, 5.00000000000000000000e-01) (162, 4, 5.00000000000000000000e-01) (162, 4, 5.00000000000000000000e-01) (162, 4, 5.00000000000000000000e-01) (162, 4, 5.00000000000000000000e-01) (162, 4, 5.00000000000000000000e-01) (162, 4, 5.00000000000000000000e-01) (162, 4, 5.00000000000000000000e-01) (162, 4, 5.00000000000000000000e-01) (162, 4, 5.00000000000000000000e-01) (162, 4, 5.00000000000000000000e-01) (162, 4, 5.00000000000000000000e-01) (162, 4, 5.00000000000000000000e-01) (162, 4, 5.00000000000000000000e-01) (162, 4, 5.00000000000000000000e-01) (162, 4, 5.00000000000000000000e-01) (162, 4, 5.00000000000000000000e-01) (162, 4, 5.00000000000000000000e-01) (162, 4, 5.00000000000000000000e-01) (162, 4, 5.00000000000000000000e-01) (162, 4, 5.00000000000000000000e-01) (162, 4, 5.00000000000000000000e-01) (162, 4, 5.00000000000000000000e-01) (162, 4, 5.00000000000000000000e-01) (162, 4, 5.00000000000000000000e-01) (162, 4, 5.00000000000000000000e-01) (162, 4, 5.00000000000000000000e-01) (162, 4, 5.00000000000000000000e-01) (162, 4, 5.00000000000000000000e-01) (162, 4, 5.00000000000000000000e-01) (162, 4, 5.00000000000000000000e-01) (162, 4, 5.00000000000000000000e-01) (162, 4, 5.00000000000000000000e-01) (162, 4, 5.00000000000000000000e-01) (162, 4, 5.00000000000000000000e-01) (162, 4, 5.00000000000000000000e-01) (162, 4, 5.00000000000000000000e-01) (0, 0, 0.00000000000000000000e+00) (101, 4, 5.00000000000000000000e-01) (0, 0, 0.00000000000000000000e+00) 
connections (connected_to_neuron, weight)=(0, -2.94666385650634765625e+01) (1, -2.73887783288955688477e-01) (2, -4.68570023775100708008e-01) (3, 1.22933931350708007812e+01) (4, 1.13266029357910156250e+01) (5, 5.23470916748046875000e+01) (6, -5.61899566650390625000e+00) (7, -5.41393160820007324219e-01) (8, -4.55439805984497070312e-01) (9, -4.43156987428665161133e-01) (10, -1.84476602077484130859e+00) (11, 1.55699491500854492188e-01) (12, -8.39412927627563476562e-01) (13, -4.64890539646148681641e-01) (14, -5.39054632186889648438e-01) (15, -1.02704119682312011719e+00) (16, 2.02678985595703125000e+01) (17, -3.11904382705688476562e+00) (18, -6.62591278553009033203e-01) (19, -3.47164750099182128906e-01) (20, -6.64485022425651550293e-02) (21, -6.96637094020843505859e-01) (22, -8.83655846118927001953e-01) (23, -8.63162338733673095703e-01) (24, -6.83530688285827636719e-01) (25, -1.33221158981323242188e+01) (26, -8.43345999717712402344e-01) (27, 1.50000000000000000000e+03) (28, -4.30363067626953125000e+02) (29, 1.50000000000000000000e+03) (30, 1.50000000000000000000e+03) (31, 1.50000000000000000000e+03) (32, 1.50000000000000000000e+03) (33, -5.19209533691406250000e+02) (34, 4.10090789794921875000e+01) (35, 6.19160194396972656250e+01) (36, 1.50000000000000000000e+03) (37, 1.50000000000000000000e+03) (38, 1.50000000000000000000e+03) (39, 1.50000000000000000000e+03) (40, 2.42824493408203125000e+02) (41, 1.50000000000000000000e+03) (42, 2.04639987945556640625e+01) (43, -4.88671989440917968750e+01) (44, -4.56886863708496093750e+00) (45, -1.23035232543945312500e+02) (46, -3.20067176818847656250e+01) (47, -2.13414382934570312500e+01) (48, -2.86310791015625000000e+02) (49, 5.90059738159179687500e+01) (50, 1.97602176666259765625e+00) (51, -1.71140670776367187500e+01) (52, -9.12250709533691406250e+00) (53, -6.71918392181396484375e-01) (54, 1.53211288452148437500e+02) (55, -1.69252223968505859375e+01) (56, 1.61877083778381347656e+00) (57, -1.08033691406250000000e+03) (58, 6.52479003906250000000e+02) (59, -2.39913702011108398438e-01) (60, 5.38291811943054199219e-01) (61, -1.09859857559204101562e+01) (62, -6.26616525650024414062e+00) (63, -9.36832885742187500000e+02) (64, -2.96291408538818359375e+01) (65, -5.67579650878906250000e+00) (66, -1.86960160732269287109e+00) (67, -2.11034210205078125000e+02) (68, -3.07441830635070800781e-01) (69, -3.06397771835327148438e+00) (70, -9.89397644996643066406e-01) (71, -5.93872606754302978516e-01) (72, 1.17743816375732421875e+01) (73, -3.74186444282531738281e+00) (74, -5.07348537445068359375e-01) (75, -8.52188682556152343750e+00) (76, -1.80436718463897705078e+00) (77, -5.91202855110168457031e-01) (78, 3.56402374267578125000e+02) (79, 1.68561744689941406250e+01) (80, -1.82752552032470703125e+01) (81, 9.13406494140625000000e+02) (82, 3.13395047187805175781e+00) (83, 2.25024893879890441895e-01) (84, -9.56793441772460937500e+01) (85, -3.39779968261718750000e+01) (86, -3.61741232872009277344e+00) (87, -7.59852066040039062500e+01) (88, -1.70989066362380981445e-01) (89, -5.92868506908416748047e-01) (90, 2.83693170547485351562e+00) (91, 4.04749721288681030273e-01) (92, -6.15085303783416748047e-01) (93, 1.24500379562377929688e+01) (94, -3.21130251884460449219e+00) (95, -6.72807037830352783203e-01) (96, 1.21568477153778076172e+00) (97, 8.80998820066452026367e-02) (98, -5.77876091003417968750e-01) (99, 3.36498832702636718750e+00) (100, -1.78544032573699951172e+00) (101, -2.73118317127227783203e-01) (102, -2.47165775299072265625e+00) (103, -9.55006480216979980469e-01) (104, -4.88618582487106323242e-01) (105, 9.53463172912597656250e+00) (106, 2.03748092055320739746e-01) (107, -4.53251868486404418945e-01) (108, -2.32169270515441894531e+00) (109, -1.15266561508178710938e-01) (110, -7.06929564476013183594e-01) (111, 1.50000000000000000000e+03) (112, 1.50000000000000000000e+03) (113, 1.36092243194580078125e+01) (114, 1.50000000000000000000e+03) (115, 4.49051017761230468750e+01) (116, -7.81242942810058593750e+00) (117, 1.17483603954315185547e+00) (118, 6.28246128559112548828e-01) (119, -9.79834973812103271484e-01) (120, 1.50000000000000000000e+03) (121, 1.50000000000000000000e+03) (122, 1.52457933425903320312e+01) (123, 1.50000000000000000000e+03) (124, -2.34390373229980468750e+01) (125, -1.07819206237792968750e+02) (126, -3.78688454627990722656e+00) (127, -7.94301867485046386719e-01) (128, -4.18914705514907836914e-01) (129, 2.54594755172729492188e+00) (130, -7.79929637908935546875e-01) (131, -4.20981496572494506836e-01) (132, -5.67293345928192138672e-01) (133, -1.30587787628173828125e+01) (134, -4.18818354606628417969e-01) (135, 1.36088502407073974609e+00) (136, -9.52985644340515136719e-01) (137, 6.44376456737518310547e-01) (138, 1.50000000000000000000e+03) (139, 2.50527262687683105469e-01) (140, 1.50000000000000000000e+03) (141, -4.68384087085723876953e-01) (142, -6.19894444942474365234e-01) (143, -2.60768914222717285156e+00) (144, -2.71400451660156250000e+00) (145, -8.41307163238525390625e+00) (146, 1.39406025409698486328e-01) (147, -2.19796061515808105469e+00) (148, -8.42432856559753417969e-01) (149, -4.95444834232330322266e-01) (150, -5.12771248817443847656e-01) (151, 6.41062676906585693359e-01) (152, 1.50000000000000000000e+03) (153, -3.73310279846191406250e+01) (154, 2.33688020706176757812e+00) (155, -3.97142887115478515625e-01) (156, -6.74089670181274414062e-01) (157, -8.64315271377563476562e-01) (158, -8.92552108764648437500e+01) (159, -1.47876366972923278809e-01) (160, 1.50000000000000000000e+03) (161, -5.98810672760009765625e-01) (0, 7.04849839210510253906e-01) (1, -3.87364923954010009766e-01) (2, 2.28212714195251464844e-01) (3, 2.01195645332336425781e+00) (4, 1.48999435424804687500e+02) (5, -9.32559013366699218750e-01) (6, 5.06922423839569091797e-01) (7, -3.80613096058368682861e-02) (8, 4.73442710936069488525e-02) (9, -5.46522960066795349121e-02) (10, 8.06930512189865112305e-02) (11, -1.07773087918758392334e-01) (12, 3.57275009155273437500e-01) (13, 2.23568052053451538086e-01) (14, 1.50139391422271728516e-01) (15, 3.27997237443923950195e-01) (16, -5.79198539257049560547e-01) (17, -1.05775868892669677734e+00) (18, 3.69870990514755249023e-01) (19, -6.30191922187805175781e-01) (20, -4.08283591270446777344e-01) (21, 7.44637906551361083984e-01) (22, 1.58069550991058349609e-01) (23, 3.90555113554000854492e-01) (24, -7.79267966747283935547e-01) (25, -1.73653078079223632812e+00) (26, 1.36135089397430419922e+00) (27, 1.50000000000000000000e+03) (28, 1.16434179687500000000e+03) (29, 1.50000000000000000000e+03) (30, 1.50000000000000000000e+03) (31, 1.50000000000000000000e+03) (32, 1.50000000000000000000e+03) (33, 7.46109619140625000000e+02) (34, -1.43517959594726562500e+02) (35, 8.33027954101562500000e+01) (36, 1.50000000000000000000e+03) (37, 1.50000000000000000000e+03) (38, 1.50000000000000000000e+03) (39, 1.50000000000000000000e+03) (40, 1.50000000000000000000e+03) (41, 1.50000000000000000000e+03) (42, -2.67121052742004394531e+00) (43, 2.25790390014648437500e+02) (44, 8.78366317749023437500e+01) (45, 9.89061279296875000000e+02) (46, 2.93049793243408203125e+01) (47, -2.81340517103672027588e-02) (48, -1.33396438598632812500e+02) (49, -3.00549743652343750000e+02) (50, -4.91627311706542968750e+00) (51, -3.04988372802734375000e+02) (52, -1.27255142211914062500e+02) (53, -6.64501547813415527344e-01) (54, -2.04309153556823730469e+00) (55, 2.14175200462341308594e+00) (56, -6.08968622982501983643e-02) (57, 1.64157810211181640625e+01) (58, -9.18831726074218750000e+02) (59, 2.13211650848388671875e+01) (60, -6.03974819183349609375e+00) (61, 2.49170136451721191406e+00) (62, 1.02733039855957031250e+00) (63, 9.71341323852539062500e+00) (64, -1.38910827636718750000e+02) (65, 2.01084194183349609375e+01) (66, 1.56246304512023925781e+00) (67, 9.25295639038085937500e+00) (68, -3.10922443866729736328e-01) (69, 2.61527806520462036133e-01) (70, 9.51613521575927734375e+00) (71, -4.52717721462249755859e-01) (72, -3.54128420352935791016e-01) (73, 2.32699260115623474121e-01) (74, 4.62994843721389770508e-01) (75, 2.06743881106376647949e-01) (76, 1.00946950912475585938e+00) (77, 1.59822732210159301758e-01) (78, 4.28770202636718750000e+02) (79, -1.96441135406494140625e+01) (80, 7.10244596004486083984e-01) (81, -3.04802703857421875000e+00) (82, -1.16543352603912353516e-01) (83, -1.14661604166030883789e-01) (84, 1.37439656257629394531e+00) (85, -6.42744731903076171875e+00) (86, -6.66034042835235595703e-01) (87, -5.96407651901245117188e+00) (88, 1.31583476066589355469e+00) (89, 5.46215511858463287354e-02) (90, -7.39768981933593750000e+00) (91, 2.25388050079345703125e+00) (92, 1.74454003572463989258e-01) (93, -2.11388290405273437500e+02) (94, 3.25040191650390625000e+02) (95, 9.04239082336425781250e+00) (96, -2.45917892456054687500e+00) (97, 9.75632488727569580078e-01) (98, 3.40995997190475463867e-01) (99, -5.01759290695190429688e+00) (100, -2.30162353515625000000e+01) (101, -4.56053435802459716797e-01) (102, 1.16763906553387641907e-02) (103, 5.19169867038726806641e-01) (104, -8.48471149802207946777e-02) (105, -2.69615721702575683594e+00) (106, 1.19301176071166992188e+00) (107, -1.80816590785980224609e-01) (108, -3.11474075317382812500e+01) (109, 5.84795475006103515625e+00) (110, 1.11465111374855041504e-01) (111, 1.50000000000000000000e+03) (112, 1.50000000000000000000e+03) (113, -1.05274848937988281250e+01) (114, 1.50000000000000000000e+03) (115, -7.52332782745361328125e+00) (116, 6.77591741085052490234e-01) (117, -4.84207105636596679688e+00) (118, 1.37172317504882812500e+00) (119, 2.85666853189468383789e-01) (120, 1.50000000000000000000e+03) (121, 1.50000000000000000000e+03) (122, 1.89360290527343750000e+02) (123, 1.50000000000000000000e+03) (124, 2.19733643531799316406e+00) (125, 3.51875400543212890625e+00) (126, 5.45339465141296386719e-01) (127, 1.06139338016510009766e+00) (128, 4.00043994188308715820e-01) (129, -6.62688255310058593750e-01) (130, -3.83026391267776489258e-01) (131, 1.95785269141197204590e-01) (132, -1.90322232246398925781e+00) (133, 1.08256661891937255859e+00) (134, 7.98334255814552307129e-02) (135, -3.11946558952331542969e+00) (136, 1.39232888817787170410e-01) (137, -5.44756293296813964844e-01) (138, 1.50000000000000000000e+03) (139, -5.83767604827880859375e+00) (140, 1.50000000000000000000e+03) (141, 1.35618519783020019531e+00) (142, 8.79253804683685302734e-01) (143, 1.34294021129608154297e+00) (144, 2.91988462209701538086e-01) (145, 6.98869407176971435547e-01) (146, -4.24329608678817749023e-01) (147, 4.85384076833724975586e-01) (148, 2.98038691282272338867e-01) (149, -3.33206832408905029297e-01) (150, 6.42626807093620300293e-02) (151, 9.80758666992187500000e-01) (152, 1.50000000000000000000e+03) (153, 4.27452697753906250000e+01) (154, -2.79671454429626464844e+00) (155, -5.03596305847167968750e-01) (156, 3.52154523134231567383e-01) (157, 7.60588645935058593750e-01) (158, -7.47766971588134765625e-01) (159, 1.18375742435455322266e+00) (160, 1.50000000000000000000e+03) (161, -7.14516565203666687012e-02) (0, 6.34496450424194335938e-01) (1, -6.84818446636199951172e-01) (2, 3.29273641109466552734e-01) (3, -4.84914255142211914062e+00) (4, 6.20161705017089843750e+01) (5, 7.70054674148559570312e+00) (6, 3.75707983970642089844e-01) (7, -2.74140741676092147827e-02) (8, 1.88197702169418334961e-01) (9, -1.34266808629035949707e-01) (10, 8.78714695572853088379e-02) (11, -2.05496951937675476074e-01) (12, 2.33546495437622070312e-01) (13, -1.65831387042999267578e-01) (14, 3.33964139223098754883e-01) (15, 3.66387933492660522461e-01) (16, -1.82958364486694335938e+00) (17, -3.60201209783554077148e-01) (18, 4.68393921852111816406e-01) (19, -1.07154119014739990234e+00) (20, -5.53689420223236083984e-01) (21, -5.37610650062561035156e-01) (22, 7.46908644214272499084e-03) (23, 1.01546168327331542969e-01) (24, 1.21794819831848144531e-01) (25, -4.82800990343093872070e-01) (26, 3.08439344167709350586e-01) (27, 1.50000000000000000000e+03) (28, 1.50000000000000000000e+03) (29, 1.50000000000000000000e+03) (30, 1.50000000000000000000e+03) (31, 1.50000000000000000000e+03) (32, 1.50000000000000000000e+03) (33, 1.43563858032226562500e+02) (34, -1.69990707397460937500e+02) (35, -4.65669479370117187500e+01) (36, 1.50000000000000000000e+03) (37, 1.50000000000000000000e+03) (38, 1.50000000000000000000e+03) (39, 1.50000000000000000000e+03) (40, 7.77964355468750000000e+02) (41, 1.50000000000000000000e+03) (42, 6.88330078125000000000e+01) (43, -1.02500019073486328125e+01) (44, 1.01446847915649414062e+01) (45, 3.16727996826171875000e+02) (46, -9.07992858886718750000e+01) (47, -2.78098344802856445312e-01) (48, -6.27881286621093750000e+02) (49, -2.64815979003906250000e+01) (50, -7.43896579742431640625e+00) (51, -1.38151159286499023438e+01) (52, -1.27746032714843750000e+02) (53, -2.35889744758605957031e+00) (54, 2.19565258026123046875e+01) (55, 4.59012508392333984375e+00) (56, -2.68347293138504028320e-01) (57, 5.16550102233886718750e+01) (58, -4.95691436767578125000e+02) (59, 5.59163093566894531250e+01) (60, 5.78722429275512695312e+00) (61, 1.28667008876800537109e+00) (62, 2.79758882522583007812e+00) (63, 1.69732864379882812500e+02) (64, 7.06919555664062500000e+02) (65, -4.79017168283462524414e-01) (66, 3.30960655212402343750e+00) (67, -3.52811741828918457031e+00) (68, -9.38539057970046997070e-02) (69, 6.88972330093383789062e+00) (70, 2.57499575614929199219e+00) (71, -3.06414067745208740234e-01) (72, -1.28993377089500427246e-01) (73, 5.20277857780456542969e-01) (74, 5.24458944797515869141e-01) (75, 1.54084730148315429688e+00) (76, 2.36694765090942382812e+00) (77, 4.49716746807098388672e-01) (78, 6.42154312133789062500e+00) (79, -1.00607162475585937500e+02) (80, -4.33798521757125854492e-01) (81, -2.09928080439567565918e-01) (82, -8.10598182678222656250e+00) (83, -2.54684239625930786133e-01) (84, -1.15527320861816406250e+02) (85, 3.34832458496093750000e+02) (86, -3.72725903987884521484e-01) (87, -1.61657409667968750000e+01) (88, 5.66195487976074218750e-01) (89, -9.52492654323577880859e-02) (90, -1.38054132461547851562e+00) (91, -7.95955181121826171875e-01) (92, 6.72185868024826049805e-02) (93, 2.04029464721679687500e+01) (94, 1.18994918823242187500e+02) (95, -6.12162876129150390625e+00) (96, 1.55302211642265319824e-01) (97, 4.96577835083007812500e+00) (98, 3.90130281448364257812e-02) (99, -7.28537797927856445312e+00) (100, -3.39498353004455566406e+00) (101, -2.97339498996734619141e-01) (102, -1.42518311738967895508e-01) (103, 6.46840989589691162109e-01) (104, -1.17801427841186523438e-02) (105, -4.50864918529987335205e-02) (106, 4.63605117797851562500e+01) (107, 9.87956151366233825684e-02) (108, 5.61117057800292968750e+01) (109, 3.61456847190856933594e+00) (110, -1.83726232498884201050e-02) (111, 1.50000000000000000000e+03) (112, 1.50000000000000000000e+03) (113, 8.37516427040100097656e-01) (114, 1.50000000000000000000e+03) (115, -7.67524948120117187500e+01) (116, -1.29903459548950195312e+00) (117, -5.80593681335449218750e+00) (118, 6.24951839447021484375e+00) (119, 3.03809344768524169922e-01) (120, 1.50000000000000000000e+03) (121, 1.50000000000000000000e+03) (122, 3.36400756835937500000e+01) (123, 1.50000000000000000000e+03) (124, 4.29506242275238037109e-01) (125, 9.57926750183105468750e-01) (126, 5.85676550865173339844e-01) (127, 3.79271507263183593750e-01) (128, 4.54812556505203247070e-01) (129, -8.65952193737030029297e-01) (130, 1.77619308233261108398e-01) (131, 4.49316620826721191406e-01) (132, -3.06440234184265136719e-01) (133, 7.45654702186584472656e-01) (134, 7.94746354222297668457e-02) (135, -5.40845155715942382812e-01) (136, -2.57170330733060836792e-02) (137, -1.29324495792388916016e+00) (138, 1.50000000000000000000e+03) (139, -1.13668775558471679688e+00) (140, 1.50000000000000000000e+03) (141, 2.16343855857849121094e+00) (142, 1.51349157094955444336e-01) (143, -4.07282650470733642578e-01) (144, -5.32579123973846435547e-01) (145, 5.89493572711944580078e-01) (146, -7.10033476352691650391e-01) (147, 5.99686801433563232422e-01) (148, 1.49291694164276123047e-01) (149, 2.20715329051017761230e-01) (150, 1.04066617786884307861e-01) (151, 1.73963233828544616699e-02) (152, 1.50000000000000000000e+03) (153, 3.06976222991943359375e+00) (154, -1.25270271301269531250e+00) (155, -2.68306583166122436523e-01) (156, 4.78934437036514282227e-01) (157, 1.38214603066444396973e-01) (158, 1.23308742046356201172e+00) (159, 1.10479462146759033203e+00) (160, 1.50000000000000000000e+03) (161, -2.52388399094343185425e-02) (0, -4.33777451515197753906e-01) (1, 1.27757525444030761719e+00) (2, -3.62448334693908691406e-01) (3, -3.26495575904846191406e+00) (4, -1.33548904418945312500e+02) (5, -4.60216308593750000000e+02) (6, -1.39016151428222656250e+00) (7, 4.24410738050937652588e-02) (8, -3.05808275938034057617e-01) (9, -8.30056190490722656250e-01) (10, -7.45792806148529052734e-01) (11, 7.70089626312255859375e-01) (12, 3.40822115540504455566e-02) (13, -1.04845419526100158691e-01) (14, 2.47362349182367324829e-02) (15, -1.44292316436767578125e+01) (16, -4.91766977310180664062e+00) (17, 1.03733810424804687500e+02) (18, -3.48745393753051757812e+00) (19, -4.24025095999240875244e-02) (20, -4.28387299180030822754e-02) (21, 6.47506237030029296875e-01) (22, -4.40995752811431884766e-01) (23, 7.66614580154418945312e+00) (24, -2.88942575454711914062e-01) (25, 3.48936057090759277344e+00) (26, 5.08260869979858398438e+00) (27, 1.50000000000000000000e+03) (28, -1.50000000000000000000e+03) (29, 1.50000000000000000000e+03) (30, 1.50000000000000000000e+03) (31, 1.50000000000000000000e+03) (32, 1.50000000000000000000e+03) (33, -1.39450427246093750000e+03) (34, -1.11170890808105468750e+02) (35, 1.07963266372680664062e+01) (36, 1.50000000000000000000e+03) (37, 1.50000000000000000000e+03) (38, 1.50000000000000000000e+03) (39, 1.50000000000000000000e+03) (40, 8.64884704589843750000e+02) (41, 1.50000000000000000000e+03) (42, -3.23693145751953125000e+02) (43, -7.93327148437500000000e+02) (44, -2.23121002197265625000e+02) (45, -2.83793735504150390625e+01) (46, -9.68047790527343750000e+01) (47, -4.21375125646591186523e-01) (48, -9.10922302246093750000e+02) (49, 1.50000000000000000000e+03) (50, -5.14220161437988281250e+01) (51, 1.83583183288574218750e+01) (52, -1.38505401611328125000e+01) (53, 1.01103391647338867188e+01) (54, 1.78613510131835937500e+01) (55, -4.24208736419677734375e+00) (56, 2.71625041961669921875e+01) (57, -1.19107653808593750000e+03) (58, 8.08395690917968750000e+02) (59, -1.59556808471679687500e+01) (60, -1.81319828033447265625e+01) (61, -6.49049139022827148438e+00) (62, -2.96469740569591522217e-02) (63, -1.44071136474609375000e+02) (64, -5.22125854492187500000e+02) (65, -1.82402099609375000000e+02) (66, -2.16980546712875366211e-01) (67, -6.78375101089477539062e+00) (68, 5.72066187858581542969e-01) (69, -2.68737926483154296875e+01) (70, -1.68022251129150390625e+00) (71, -8.49440246820449829102e-02) (72, 8.25674438476562500000e+01) (73, -1.13783359527587890625e+00) (74, -9.94403123855590820312e-01) (75, -7.38208923339843750000e+01) (76, -1.16512060165405273438e+00) (77, -6.84360146522521972656e-01) (78, 3.57383422851562500000e+02) (79, 1.26413173675537109375e+01) (80, 4.17685699462890625000e+01) (81, -2.20527246594429016113e-01) (82, -1.24141597747802734375e+00) (83, 1.77789187431335449219e+00) (84, -1.27701370239257812500e+02) (85, -1.28810386657714843750e+01) (86, -1.94286262989044189453e+00) (87, 1.34375295639038085938e+01) (88, 6.69598758220672607422e-01) (89, 6.22462965548038482666e-02) (90, 1.91416931152343750000e+01) (91, 1.78997173905372619629e-01) (92, 1.43018662929534912109e-01) (93, -3.33213714599609375000e+02) (94, 5.68354248046875000000e+02) (95, -5.47263336181640625000e+01) (96, 1.40121653676033020020e-01) (97, -1.36001360416412353516e+00) (98, 1.12137950956821441650e-01) (99, -1.11427246093750000000e+02) (100, -1.38410317897796630859e+00) (101, 6.80786371231079101562e-01) (102, 1.01659919738769531250e+02) (103, -1.37936100363731384277e-01) (104, 2.43794128298759460449e-01) (105, -1.73717856407165527344e+00) (106, 3.09736520051956176758e-01) (107, 2.38593444228172302246e-01) (108, 1.84310684204101562500e+02) (109, 4.64033514261245727539e-01) (110, -1.67599841952323913574e-01) (111, 1.50000000000000000000e+03) (112, 1.50000000000000000000e+03) (113, -4.37349605560302734375e+00) (114, 1.50000000000000000000e+03) (115, -4.07446136474609375000e+01) (116, 1.15929193496704101562e+01) (117, -2.15966129302978515625e+00) (118, -1.94409474730491638184e-01) (119, -2.20188438892364501953e-01) (120, 1.50000000000000000000e+03) (121, 1.50000000000000000000e+03) (122, -2.41814446449279785156e+00) (123, 1.50000000000000000000e+03) (124, -6.61379928588867187500e+01) (125, -6.50144636631011962891e-01) (126, -1.77995717525482177734e+00) (127, -2.64725178480148315430e-01) (128, -6.86274468898773193359e-02) (129, 1.09064459800720214844e-01) (130, -8.32129478454589843750e-01) (131, -1.08992628753185272217e-01) (132, 3.51013004779815673828e-01) (133, -7.93904542922973632812e-01) (134, 1.64830446243286132812e-01) (135, 1.09568846225738525391e+00) (136, -3.01531910896301269531e-01) (137, -1.31205511093139648438e+00) (138, 1.50000000000000000000e+03) (139, -1.21251049041748046875e+01) (140, 1.50000000000000000000e+03) (141, -1.19586086273193359375e+01) (142, -5.50700235366821289062e+00) (143, -2.44818711280822753906e+00) (144, -2.52463889122009277344e+00) (145, 2.14465841650962829590e-01) (146, 4.67788925170898437500e+01) (147, -2.95095980167388916016e-01) (148, 2.69921150207519531250e+01) (149, -1.44935339689254760742e-01) (150, 1.49902552366256713867e-01) (151, -3.83530378341674804688e+00) (152, 1.50000000000000000000e+03) (153, 2.96187013387680053711e-01) (154, -5.49459576606750488281e-01) (155, 2.82467782497406005859e-01) (156, -2.13469892740249633789e-01) (157, -7.91578531265258789062e-01) (158, 7.87673997879028320312e+00) (159, -1.06793298721313476562e+01) (160, 1.50000000000000000000e+03) (161, 1.84180945158004760742e-01) (0, -2.96077747344970703125e+01) (1, -2.50248640775680541992e-01) (2, -5.64616620540618896484e-01) (3, 2.08835052490234375000e+02) (4, 3.52727165222167968750e+01) (5, 9.30907821655273437500e+01) (6, -5.64476680755615234375e+00) (7, -4.70227956771850585938e-01) (8, -4.49914336204528808594e-01) (9, -5.94636380672454833984e-01) (10, -1.65926468372344970703e+00) (11, -1.36962682008743286133e-02) (12, -7.64123916625976562500e-01) (13, -4.10005956888198852539e-01) (14, -5.42048931121826171875e-01) (15, -7.16656327247619628906e-01) (16, 2.04033966064453125000e+01) (17, -3.12100052833557128906e+00) (18, -7.67970383167266845703e-01) (19, -3.81182402372360229492e-01) (20, -1.49356201291084289551e-01) (21, -6.29862546920776367188e-01) (22, -8.26607108116149902344e-01) (23, -9.43708956241607666016e-01) (24, -4.85470235347747802734e-01) (25, -1.33749675750732421875e+01) (26, -7.99219191074371337891e-01) (27, 1.50000000000000000000e+03) (28, -4.30462738037109375000e+02) (29, 1.50000000000000000000e+03) (30, 1.50000000000000000000e+03) (31, 1.50000000000000000000e+03) (32, 1.50000000000000000000e+03) (33, -5.18929809570312500000e+02) (34, 4.10988731384277343750e+01) (35, 6.19142494201660156250e+01) (36, 1.50000000000000000000e+03) (37, 1.50000000000000000000e+03) (38, 1.50000000000000000000e+03) (39, 1.50000000000000000000e+03) (40, 5.43072814941406250000e+02) (41, 1.50000000000000000000e+03) (42, 2.04337100982666015625e+01) (43, -1.18038345336914062500e+02) (44, -4.40675640106201171875e+00) (45, -5.34895095825195312500e+01) (46, -2.25243625640869140625e+01) (47, -2.23259849548339843750e+01) (48, -5.00140113830566406250e+01) (49, 2.45766944885253906250e+01) (50, 2.02675390243530273438e+00) (51, -2.35403466224670410156e+00) (52, -1.68241906166076660156e+00) (53, -7.83373296260833740234e-01) (54, 1.53156097412109375000e+02) (55, -1.72289791107177734375e+01) (56, 1.64967870712280273438e+00) (57, -1.00736480712890625000e+03) (58, 6.52473266601562500000e+02) (59, -3.02036911249160766602e-01) (60, 4.13962984085083007812e+00) (61, -5.31415128707885742188e+00) (62, -6.17782592773437500000e+00) (63, -8.20962585449218750000e+02) (64, -8.92813205718994140625e+00) (65, -4.37499618530273437500e+00) (66, -3.37970352172851562500e+00) (67, -2.60908966064453125000e+02) (68, -2.58400678634643554688e-01) (69, -2.86733675003051757812e+00) (70, -6.31499481201171875000e+01) (71, -5.95790445804595947266e-01) (72, 1.17144298553466796875e+01) (73, -9.02141928672790527344e-01) (74, -6.84936285018920898438e-01) (75, -8.51414394378662109375e+00) (76, -2.04842042922973632812e+00) (77, -6.12702131271362304688e-01) (78, 3.56507720947265625000e+02) (79, 1.67339935302734375000e+01) (80, -1.82467899322509765625e+01) (81, 9.13354919433593750000e+02) (82, 1.01935970783233642578e+00) (83, 4.70096021890640258789e-01) (84, -2.52782039642333984375e+01) (85, -8.46661224365234375000e+01) (86, -3.51375317573547363281e+00) (87, -7.59125213623046875000e+01) (88, -8.41116532683372497559e-02) (89, -4.68188405036926269531e-01) (90, 4.16142320632934570312e+00) (91, 2.80927985906600952148e-01) (92, -5.90730130672454833984e-01) (93, 1.01684865951538085938e+01) (94, -3.18699455261230468750e+00) (95, -4.89100694656372070312e-01) (96, 1.10463762283325195312e+00) (97, 1.83826982975006103516e-01) (98, -4.90227371454238891602e-01) (99, 2.48470664024353027344e+00) (100, -4.22787055969238281250e+01) (101, -1.66739150881767272949e-01) (102, -3.63418149948120117188e+00) (103, -1.24955141544342041016e+00) (104, -5.74949741363525390625e-01) (105, 4.11447763442993164062e+00) (106, 3.23768079280853271484e-01) (107, -5.68939983844757080078e-01) (108, -6.53793954849243164062e+00) (109, -1.28546908497810363770e-01) (110, -7.45878458023071289062e-01) (111, 1.50000000000000000000e+03) (112, 1.50000000000000000000e+03) (113, 1.03463916778564453125e+01) (114, 1.50000000000000000000e+03) (115, 4.08247108459472656250e+01) (116, -7.07266330718994140625e+00) (117, 1.35376703739166259766e+00) (118, 7.04597592353820800781e-01) (119, -1.03076684474945068359e+00) (120, 1.50000000000000000000e+03) (121, 1.50000000000000000000e+03) (122, 8.52919673919677734375e+00) (123, 1.50000000000000000000e+03) (124, -9.09055328369140625000e+00) (125, -4.56471672058105468750e+01) (126, -3.90302681922912597656e+00) (127, -1.12283134460449218750e+00) (128, -3.98692667484283447266e-01) (129, 2.89037704467773437500e+00) (130, -1.44933390617370605469e+00) (131, -5.72762787342071533203e-01) (132, -4.11637485027313232422e-01) (133, -1.29382724761962890625e+01) (134, -4.96973514556884765625e-01) (135, 1.34695053100585937500e+00) (136, -6.52296304702758789062e-01) (137, 6.41217529773712158203e-01) (138, 1.50000000000000000000e+03) (139, 3.06141465902328491211e-01) (140, 1.50000000000000000000e+03) (141, -3.26697260141372680664e-01) (142, 1.85349578857421875000e+01) (143, -2.68259096145629882812e+00) (144, -5.48229026794433593750e+00) (145, -8.35710811614990234375e+00) (146, 1.85279194265604019165e-02) (147, -2.19121646881103515625e+00) (148, -8.07538986206054687500e-01) (149, -3.52979570627212524414e-01) (150, -5.56116342544555664062e-01) (151, 7.52815186977386474609e-01) (152, 1.50000000000000000000e+03) (153, -5.77490377426147460938e+00) (154, 2.34878396987915039062e+00) (155, -4.41947430372238159180e-01) (156, -6.87838792800903320312e-01) (157, -8.35253536701202392578e-01) (158, -8.92556381225585937500e+01) (159, -2.93534934520721435547e-01) (160, 1.50000000000000000000e+03) (161, -4.13976341485977172852e-01) (0, -1.28818817138671875000e+01) (1, -3.82374882698059082031e-01) (2, -4.08248752355575561523e-01) (3, 1.36123170852661132812e+01) (4, -9.99877929687500000000e+00) (5, 1.24666778564453125000e+02) (6, -5.50077438354492187500e+00) (7, -4.51690375804901123047e-01) (8, -4.82941091060638427734e-01) (9, -5.32628893852233886719e-01) (10, -1.71378052234649658203e+00) (11, 1.27901539206504821777e-01) (12, -7.64966607093811035156e-01) (13, -5.28004705905914306641e-01) (14, -3.78431797027587890625e-01) (15, -9.46156740188598632812e-01) (16, 2.03679695129394531250e+01) (17, -3.14809203147888183594e+00) (18, -8.15825045108795166016e-01) (19, -2.41272285580635070801e-01) (20, -3.70869301259517669678e-02) (21, -4.84910011291503906250e-01) (22, -7.81320571899414062500e-01) (23, -9.44378912448883056641e-01) (24, -6.44716858863830566406e-01) (25, -1.33472375869750976562e+01) (26, -7.23338961601257324219e-01) (27, 1.50000000000000000000e+03) (28, -4.30470794677734375000e+02) (29, 1.50000000000000000000e+03) (30, 1.50000000000000000000e+03) (31, 1.50000000000000000000e+03) (32, 1.50000000000000000000e+03) (33, -5.19186157226562500000e+02) (34, 4.10603675842285156250e+01) (35, 6.19226875305175781250e+01) (36, 1.50000000000000000000e+03) (37, 1.50000000000000000000e+03) (38, 1.50000000000000000000e+03) (39, 1.50000000000000000000e+03) (40, 2.42905303955078125000e+02) (41, 1.50000000000000000000e+03) (42, 2.05023136138916015625e+01) (43, -4.87119255065917968750e+01) (44, -8.40614318847656250000e+00) (45, -3.20161834716796875000e+02) (46, -9.38020133972167968750e+00) (47, -2.22775268554687500000e+01) (48, -2.11519432067871093750e+01) (49, 2.45405006408691406250e+01) (50, 2.01512098312377929688e+00) (51, -7.09274387359619140625e+00) (52, -9.17048263549804687500e+00) (53, -7.51797199249267578125e-01) (54, 6.34530181884765625000e+01) (55, -1.69343833923339843750e+01) (56, 1.70898532867431640625e+00) (57, -8.68475875854492187500e+01) (58, 9.44139343261718750000e+02) (59, -2.11120292544364929199e-01) (60, 1.26002979278564453125e+00) (61, -5.33603382110595703125e+00) (62, -6.14867830276489257812e+00) (63, -8.20947753906250000000e+02) (64, -1.04430093765258789062e+01) (65, -7.23577976226806640625e+00) (66, -3.82909750938415527344e+00) (67, -2.11013732910156250000e+02) (68, -3.69158804416656494141e-01) (69, 1.16649305820465087891e+00) (70, -2.27110004425048828125e+00) (71, -5.74763596057891845703e-01) (72, 1.24375686645507812500e+01) (73, -4.65510082244873046875e+00) (74, -5.32966852188110351562e-01) (75, -1.76473307609558105469e+00) (76, -2.08762383460998535156e+00) (77, -4.54300433397293090820e-01) (78, 3.56489715576171875000e+02) (79, 1.69013500213623046875e+01) (80, -1.81237449645996093750e+01) (81, 9.13325256347656250000e+02) (82, 3.07474875450134277344e+00) (83, 1.28558814525604248047e-01) (84, -1.45096191406250000000e+02) (85, -1.23820152282714843750e+02) (86, -3.52304005622863769531e+00) (87, -7.60513000488281250000e+01) (88, -2.34213948249816894531e-01) (89, -5.58081924915313720703e-01) (90, 9.20243978500366210938e-01) (91, 6.32575154304504394531e-01) (92, -4.76816445589065551758e-01) (93, 1.01031761169433593750e+01) (94, 1.84088806152343750000e+02) (95, -5.48787176609039306641e-01) (96, 1.22308266162872314453e+00) (97, 1.21711805462837219238e-01) (98, -4.92248147726058959961e-01) (99, 5.88585329055786132812e+00) (100, -1.76975750923156738281e+00) (101, -8.76496508717536926270e-02) (102, -2.30686759948730468750e+00) (103, -1.04406142234802246094e+00) (104, -5.91843366622924804688e-01) (105, 4.09516096115112304688e+00) (106, 2.68801838159561157227e-01) (107, -4.43901777267456054688e-01) (108, -2.77892172336578369141e-01) (109, -1.75742313265800476074e-01) (110, -6.52404427528381347656e-01) (111, 1.50000000000000000000e+03) (112, 1.50000000000000000000e+03) (113, 4.43036890029907226562e+00) (114, 1.50000000000000000000e+03) (115, 4.48023147583007812500e+01) (116, -1.22841062545776367188e+01) (117, 1.68850827217102050781e+00) (118, 8.80557715892791748047e-01) (119, -8.92531156539916992188e-01) (120, 1.50000000000000000000e+03) (121, 1.50000000000000000000e+03) (122, 1.55568170547485351562e+01) (123, 1.50000000000000000000e+03) (124, 9.94231700897216796875e-01) (125, -1.07741600036621093750e+02) (126, -3.92273211479187011719e+00) (127, -7.63456702232360839844e-01) (128, -3.11789751052856445312e-01) (129, 2.49572753906250000000e+00) (130, -1.07562041282653808594e+00) (131, -4.98173505067825317383e-01) (132, -4.33588296175003051758e-01) (133, -1.29500331878662109375e+01) (134, -5.85064649581909179688e-01) (135, 1.38769781589508056641e+00) (136, -9.05067920684814453125e-01) (137, 8.53853285312652587891e-01) (138, 1.50000000000000000000e+03) (139, 1.81075477600097656250e+00) (140, 1.50000000000000000000e+03) (141, -2.74014145135879516602e-01) (142, -3.95129537582397460938e+00) (143, -2.72390246391296386719e+00) (144, -5.49849891662597656250e+00) (145, -8.52897834777832031250e+00) (146, 1.22961945831775665283e-01) (147, -2.16907548904418945312e+00) (148, -9.32382583618164062500e-01) (149, -4.84020918607711791992e-01) (150, -5.96940755844116210938e-01) (151, 6.11856400966644287109e-01) (152, 1.50000000000000000000e+03) (153, -3.72749633789062500000e+01) (154, 1.80842578411102294922e+00) (155, -4.39712822437286376953e-01) (156, -7.40428328514099121094e-01) (157, -8.30357313156127929688e-01) (158, -8.93016891479492187500e+01) (159, -2.71192103624343872070e-01) (160, 1.50000000000000000000e+03) (161, -5.00492691993713378906e-01) (0, -2.09919184446334838867e-01) (1, 8.14872682094573974609e-02) (2, -2.36171126365661621094e-01) (3, -2.83310413360595703125e+01) (4, -2.83409759521484375000e+02) (5, 9.36815202236175537109e-01) (6, -2.28117302060127258301e-01) (7, 2.11429357528686523438e-01) (8, -5.10682463645935058594e-02) (9, 1.80011302232742309570e-01) (10, -1.06313729286193847656e+00) (11, 3.34348678588867187500e-01) (12, 4.86117810010910034180e-01) (13, 1.59447520971298217773e-01) (14, 1.02697536349296569824e-01) (15, -1.79837646484375000000e+01) (16, -6.68010950088500976562e+00) (17, -2.22580623626708984375e+00) (18, 5.20713441073894500732e-02) (19, 2.06878662109375000000e-01) (20, 3.08073997497558593750e-01) (21, 2.51710027456283569336e-01) (22, -3.16415405273437500000e+00) (23, -9.57737769931554794312e-03) (24, 6.54578566551208496094e-01) (25, -7.59761035442352294922e-01) (26, 2.48412519693374633789e-01) (27, 1.50000000000000000000e+03) (28, -1.50000000000000000000e+03) (29, 1.50000000000000000000e+03) (30, 1.50000000000000000000e+03) (31, 1.50000000000000000000e+03) (32, 1.50000000000000000000e+03) (33, -3.92912658691406250000e+02) (34, 4.65159568786621093750e+01) (35, 4.43414520263671875000e+02) (36, 1.50000000000000000000e+03) (37, 1.50000000000000000000e+03) (38, 1.50000000000000000000e+03) (39, 1.50000000000000000000e+03) (40, 1.06624121093750000000e+03) (41, 1.50000000000000000000e+03) (42, -4.64630371093750000000e+02) (43, -7.93505249023437500000e+02) (44, -4.91740646362304687500e+01) (45, -6.99156677246093750000e+02) (46, -9.40156173706054687500e+00) (47, -3.47600722312927246094e+00) (48, 7.19498657226562500000e+02) (49, -1.46148300170898437500e+02) (50, 6.95435643196105957031e-01) (51, 3.29022377729415893555e-01) (52, -9.07872161865234375000e+01) (53, 6.00035190582275390625e-01) (54, 8.15743923187255859375e-01) (55, -9.94884300231933593750e+00) (56, 4.26430881023406982422e-01) (57, -1.39561938476562500000e+03) (58, 2.13000488281250000000e+01) (59, -6.29298686981201171875e-02) (60, -4.32606077194213867188e+00) (61, -9.54463863372802734375e+00) (62, -5.97600221633911132812e-01) (63, -2.46879577636718750000e+02) (64, 7.70484924316406250000e+02) (65, -3.65319633483886718750e+00) (66, -1.46494293212890625000e+01) (67, -1.00389661788940429688e+01) (68, 2.40970671176910400391e-01) (69, -9.78684723377227783203e-02) (70, -1.18985069274902343750e+02) (71, 3.99072736501693725586e-01) (72, 4.26149368286132812500e+00) (73, 3.36855798959732055664e-02) (74, -6.44825473427772521973e-02) (75, 5.23556232452392578125e-01) (76, 2.54179763793945312500e+00) (77, 9.74218174815177917480e-02) (78, -2.07640094757080078125e+01) (79, -1.06033905029296875000e+02) (80, -1.67349743843078613281e+00) (81, 5.54171025753021240234e-01) (82, -7.94086575508117675781e-01) (83, 3.48091214895248413086e-01) (84, 2.04713597893714904785e-01) (85, -2.16213531494140625000e+01) (86, 4.47075426578521728516e-01) (87, 3.55973362922668457031e-01) (88, 2.71143227815628051758e-01) (89, -1.09590359032154083252e-01) (90, -7.82622528076171875000e+01) (91, -1.18912191390991210938e+01) (92, -7.29762837290763854980e-02) (93, 6.16411447525024414062e-01) (94, 1.20962226867675781250e+02) (95, -5.13593196868896484375e-01) (96, -4.47011180222034454346e-02) (97, -5.82515478134155273438e-01) (98, -1.12500987946987152100e-01) (99, -1.58413469791412353516e-01) (100, 8.54908847808837890625e+00) (101, 3.18239361047744750977e-01) (102, -1.99378573894500732422e+00) (103, -1.70223617553710937500e+00) (104, 1.54421135783195495605e-01) (105, -4.12557125091552734375e-01) (106, -7.53749966621398925781e-01) (107, -1.01268865168094635010e-01) (108, 2.26208419799804687500e+02) (109, -1.12807488441467285156e+00) (110, 1.87815681099891662598e-01) (111, 1.50000000000000000000e+03) (112, 1.50000000000000000000e+03) (113, 3.76415100097656250000e+01) (114, 1.50000000000000000000e+03) (115, 1.84014854431152343750e+01) (116, 4.87045383453369140625e+00) (117, -5.06396627426147460938e+00) (118, 1.02091321945190429688e+01) (119, 9.56306140869855880737e-03) (120, 1.50000000000000000000e+03) (121, 1.50000000000000000000e+03) (122, 4.56720685958862304688e+00) (123, 1.50000000000000000000e+03) (124, -1.07402238845825195312e+01) (125, -7.57130527496337890625e+00) (126, -7.50274240970611572266e-01) (127, -5.32804131507873535156e-01) (128, -8.65900591015815734863e-02) (129, 1.82190799713134765625e+00) (130, 7.22719478607177734375e+00) (131, -5.80877542495727539062e-01) (132, -6.53878748416900634766e-02) (133, -3.07824730873107910156e+00) (134, 1.41790494322776794434e-01) (135, 1.79225788116455078125e+01) (136, 1.14815816283226013184e-01) (137, -1.60056734085083007812e+00) (138, 1.50000000000000000000e+03) (139, 2.13047504425048828125e+00) (140, 1.50000000000000000000e+03) (141, 1.92098445892333984375e+01) (142, -8.02399063110351562500e+00) (143, -1.35961937904357910156e+00) (144, -1.32366311550140380859e+00) (145, -1.71903836727142333984e+00) (146, 4.16391730308532714844e-01) (147, -1.24289155006408691406e-01) (148, -1.98391354084014892578e+00) (149, 3.35206352174282073975e-02) (150, 1.23878933489322662354e-01) (151, 9.01524052023887634277e-02) (152, 1.50000000000000000000e+03) (153, -3.01969543457031250000e+02) (154, 8.65700364112854003906e-01) (155, 2.70592987537384033203e-01) (156, -1.91856250166893005371e-01) (157, -1.76118922233581542969e+00) (158, -2.73006296157836914062e+00) (159, -1.47461593151092529297e-01) (160, 1.50000000000000000000e+03) (161, 8.18873196840286254883e-02) (0, -1.27466621398925781250e+01) (1, -3.30908894538879394531e-01) (2, -5.62509715557098388672e-01) (3, 1.18359556198120117188e+01) (4, 1.12328243255615234375e+01) (5, 2.98045471191406250000e+02) (6, -5.65373134613037109375e+00) (7, -5.45034766197204589844e-01) (8, -4.31792140007019042969e-01) (9, -4.76828813552856445312e-01) (10, -1.80617594718933105469e+00) (11, 5.05823269486427307129e-02) (12, -9.12512719631195068359e-01) (13, -5.26803314685821533203e-01) (14, -4.87262696027755737305e-01) (15, -8.78712892532348632812e-01) (16, 2.03932704925537109375e+01) (17, -3.15363240242004394531e+00) (18, -6.97648465633392333984e-01) (19, -2.23234221339225769043e-01) (20, 6.79781287908554077148e-02) (21, -6.60328209400177001953e-01) (22, -9.17542517185211181641e-01) (23, -8.92395436763763427734e-01) (24, -7.36789107322692871094e-01) (25, -1.33605194091796875000e+01) (26, -1.02665770053863525391e+00) (27, 1.50000000000000000000e+03) (28, -7.37171813964843750000e+02) (29, 1.50000000000000000000e+03) (30, 1.50000000000000000000e+03) (31, 1.50000000000000000000e+03) (32, 1.50000000000000000000e+03) (33, -5.18852111816406250000e+02) (34, 4.10243873596191406250e+01) (35, 6.19180335998535156250e+01) (36, 1.50000000000000000000e+03) (37, 1.50000000000000000000e+03) (38, 1.50000000000000000000e+03) (39, 1.50000000000000000000e+03) (40, 2.24765914916992187500e+02) (41, 1.50000000000000000000e+03) (42, 2.05137271881103515625e+01) (43, -4.87953796386718750000e+01) (44, -8.29640197753906250000e+00) (45, -3.20259246826171875000e+02) (46, -1.14337873458862304688e+01) (47, -2.23424873352050781250e+01) (48, -1.19506759643554687500e+02) (49, 2.45158348083496093750e+01) (50, 1.96819972991943359375e+00) (51, -7.09063577651977539062e+00) (52, -1.78746187686920166016e+00) (53, -7.21264839172363281250e-01) (54, 6.33071060180664062500e+01) (55, -1.72990207672119140625e+01) (56, 1.72623586654663085938e+00) (57, -1.98294174194335937500e+02) (58, 6.52586975097656250000e+02) (59, -2.89727121591567993164e-01) (60, 1.18969225883483886719e+00) (61, -5.32487487792968750000e+00) (62, -6.10850191116333007812e+00) (63, -8.21091674804687500000e+02) (64, -1.52998650074005126953e+00) (65, -4.91266822814941406250e+00) (66, -3.77766466140747070312e+00) (67, -5.04657135009765625000e+02) (68, -3.53897869586944580078e-01) (69, 1.78260445594787597656e+00) (70, -6.30696601867675781250e+01) (71, -6.95411086082458496094e-01) (72, 1.61130275726318359375e+01) (73, -2.18213605880737304688e+00) (74, -5.37069082260131835938e-01) (75, -1.89658617973327636719e+00) (76, -2.46452856063842773438e+00) (77, -6.00579380989074707031e-01) (78, 3.56398468017578125000e+02) (79, 1.67391948699951171875e+01) (80, -1.82953548431396484375e+01) (81, 9.13387145996093750000e+02) (82, 3.11470246315002441406e+00) (83, 5.16488909721374511719e-01) (84, -1.62508735656738281250e+01) (85, -3.39287414550781250000e+01) (86, -3.53740286827087402344e+00) (87, -7.59416656494140625000e+01) (88, -3.54828909039497375488e-02) (89, -6.04875147342681884766e-01) (90, 4.14458560943603515625e+00) (91, 3.35727900266647338867e-01) (92, -5.12451112270355224609e-01) (93, 1.00140876770019531250e+01) (94, -3.13908481597900390625e+00) (95, -5.42814671993255615234e-01) (96, 1.13819193840026855469e+00) (97, 1.03955686092376708984e-01) (98, -4.99361038208007812500e-01) (99, 5.76440763473510742188e+00) (100, -3.56054115295410156250e+00) (101, -3.24683666229248046875e-01) (102, -2.29714488983154296875e+00) (103, -1.36238133907318115234e+00) (104, -5.23896574974060058594e-01) (105, 4.10078144073486328125e+00) (106, 2.18775987625122070312e-01) (107, -4.35152769088745117188e-01) (108, 3.55363905429840087891e-01) (109, -9.40117985010147094727e-02) (110, -8.05809974670410156250e-01) (111, 1.50000000000000000000e+03) (112, 1.50000000000000000000e+03) (113, 1.18905887603759765625e+01) (114, 1.50000000000000000000e+03) (115, 4.07918624877929687500e+01) (116, -7.88130760192871093750e+00) (117, 1.32654726505279541016e+00) (118, 6.11090302467346191406e-01) (119, -9.63195085525512695312e-01) (120, 1.50000000000000000000e+03) (121, 1.50000000000000000000e+03) (122, 1.73796844482421875000e+01) (123, 1.50000000000000000000e+03) (124, -5.28271150588989257812e+00) (125, -1.07799369812011718750e+02) (126, -3.81455349922180175781e+00) (127, -8.80298018455505371094e-01) (128, -3.72184157371520996094e-01) (129, 2.40682935714721679688e+00) (130, -1.50528573989868164062e+00) (131, -4.28623527288436889648e-01) (132, -5.04454195499420166016e-01) (133, -1.29614543914794921875e+01) (134, -5.10147213935852050781e-01) (135, 1.38881874084472656250e+00) (136, -9.10870075225830078125e-01) (137, 9.07867372035980224609e-01) (138, 1.50000000000000000000e+03) (139, 1.80207431316375732422e+00) (140, 1.50000000000000000000e+03) (141, -2.09894448518753051758e-01) (142, -2.57987594604492187500e+00) (143, -2.63230609893798828125e+00) (144, -5.54783105850219726562e+00) (145, -8.44891929626464843750e+00) (146, 5.66542521119117736816e-02) (147, -2.03781509399414062500e+00) (148, -9.26569938659667968750e-01) (149, -3.98072451353073120117e-01) (150, -5.36343812942504882812e-01) (151, 6.96629941463470458984e-01) (152, 1.50000000000000000000e+03) (153, -3.74066238403320312500e+01) (154, 2.23478627204895019531e+00) (155, -3.98454129695892333984e-01) (156, -7.29849934577941894531e-01) (157, -7.94078707695007324219e-01) (158, -8.94119491577148437500e+01) (159, -1.32443085312843322754e-01) (160, 1.50000000000000000000e+03) (161, -4.31894540786743164062e-01) (0, -8.70073139667510986328e-01) (1, 2.47853994369506835938e-02) (2, -3.44064444303512573242e-01) (3, -2.48681470751762390137e-01) (4, 1.30228500366210937500e+02) (5, 2.05014777183532714844e+00) (6, -5.38896620273590087891e-01) (7, -3.68772357702255249023e-01) (8, -3.67996335029602050781e-01) (9, -4.47687059640884399414e-01) (10, -1.61274731159210205078e+00) (11, 4.01016086339950561523e-01) (12, -8.94267380237579345703e-01) (13, -6.08006536960601806641e-01) (14, -3.88978391885757446289e-01) (15, -1.84408891201019287109e+00) (16, 2.31828138232231140137e-01) (17, -1.82763881683349609375e+01) (18, -3.19989353418350219727e-01) (19, -2.58699148893356323242e-01) (20, 9.50926020741462707520e-02) (21, -2.54517745971679687500e+01) (22, -8.36425304412841796875e+00) (23, -9.78367567062377929688e-01) (24, -5.56660652160644531250e+00) (25, -1.32152519226074218750e+01) (26, -4.51723861694335937500e+00) (27, 1.50000000000000000000e+03) (28, -7.37210571289062500000e+02) (29, 1.50000000000000000000e+03) (30, 1.50000000000000000000e+03) (31, 1.50000000000000000000e+03) (32, 1.50000000000000000000e+03) (33, -2.24815692901611328125e+01) (34, 4.09866447448730468750e+01) (35, 4.23920392990112304688e+00) (36, 1.50000000000000000000e+03) (37, 1.50000000000000000000e+03) (38, 1.50000000000000000000e+03) (39, 1.50000000000000000000e+03) (40, 3.04537963867187500000e+02) (41, 1.50000000000000000000e+03) (42, -2.09151214599609375000e+02) (43, -2.02056102752685546875e+01) (44, -8.77950668334960937500e+00) (45, -4.04901390075683593750e+01) (46, -1.22025537490844726562e+01) (47, -1.97600448131561279297e+00) (48, -8.23695739746093750000e+02) (49, 6.28841613769531250000e+02) (50, 4.45280599594116210938e+00) (51, -2.49504890441894531250e+01) (52, -1.47330427169799804688e+00) (53, 7.29065954685211181641e-01) (54, -6.09315185546875000000e+02) (55, -3.39998555183410644531e+00) (56, 2.48885035514831542969e+00) (57, -1.50000000000000000000e+03) (58, 1.25051831054687500000e+03) (59, -5.76210856437683105469e-01) (60, -3.36448907852172851562e-01) (61, -2.07167959213256835938e+00) (62, -4.30464076995849609375e+00) (63, -3.20135574340820312500e+01) (64, 4.09783649444580078125e+00) (65, -2.64590167999267578125e+00) (66, -1.66429710388183593750e+01) (67, -2.44815349578857421875e+01) (68, 1.10153272747993469238e-01) (69, -9.44207916259765625000e+01) (70, -2.17735176086425781250e+01) (71, -2.24158954620361328125e+00) (72, 5.25265979766845703125e+00) (73, -1.14102995395660400391e+00) (74, -4.60416436195373535156e-01) (75, 8.43204021453857421875e+00) (76, -2.05308647155761718750e+01) (77, -4.97212231159210205078e-01) (78, 3.59860748291015625000e+02) (79, 1.42446527481079101562e+01) (80, -1.51341557502746582031e+00) (81, 9.96460199356079101562e-01) (82, 7.97655773162841796875e+00) (83, 1.38406515121459960938e-01) (84, -2.87530242919921875000e+02) (85, -1.96853332519531250000e+01) (86, -2.87528443336486816406e+00) (87, 7.77871131896972656250e+00) (88, 2.47479766607284545898e-01) (89, -5.29638588428497314453e-01) (90, 1.29912490844726562500e+01) (91, 3.46804022789001464844e+00) (92, -4.50337022542953491211e-01) (93, -1.54058480262756347656e+00) (94, 1.34037590026855468750e+00) (95, -6.20953328907489776611e-02) (96, 1.35234141349792480469e+00) (97, 2.74740576744079589844e-01) (98, -6.36615335941314697266e-01) (99, 2.14168167114257812500e+01) (100, -2.35798912048339843750e+01) (101, 8.48110318183898925781e-01) (102, 7.40063846111297607422e-01) (103, -1.55152463912963867188e+00) (104, -5.29663026332855224609e-01) (105, 3.57227444648742675781e-01) (106, 7.04267621040344238281e-02) (107, -5.73829948902130126953e-01) (108, 3.70105209350585937500e+01) (109, -6.42441689968109130859e-01) (110, -5.77834129333496093750e-01) (111, 1.50000000000000000000e+03) (112, 1.50000000000000000000e+03) (113, 1.68374672532081604004e-01) (114, 1.50000000000000000000e+03) (115, 4.48789100646972656250e+01) (116, -1.72932682037353515625e+01) (117, 4.22649204730987548828e-01) (118, 5.06644368171691894531e-01) (119, -1.76300024986267089844e+00) (120, 1.50000000000000000000e+03) (121, 1.50000000000000000000e+03) (122, 1.73936042785644531250e+01) (123, 1.50000000000000000000e+03) (124, 1.47189986705780029297e+00) (125, -1.06971488952636718750e+02) (126, -7.18299031257629394531e-01) (127, -7.74047791957855224609e-01) (128, -2.36945390701293945312e-01) (129, 9.80717778205871582031e-01) (130, -2.40546369552612304688e+00) (131, -2.24263131618499755859e-01) (132, -3.13035279512405395508e-01) (133, -3.19321422576904296875e+01) (134, -4.78516787290573120117e-01) (135, 1.15261220932006835938e+00) (136, -5.29285907745361328125e-01) (137, 8.14132213592529296875e-01) (138, 1.50000000000000000000e+03) (139, 6.06306016445159912109e-01) (140, 1.50000000000000000000e+03) (141, -2.92337149381637573242e-01) (142, -1.11871461868286132812e+01) (143, -3.63534522056579589844e+00) (144, -5.63102483749389648438e+00) (145, -4.81583929061889648438e+00) (146, 6.86441779136657714844e-01) (147, -7.73715496063232421875e-01) (148, -4.41036731004714965820e-01) (149, -5.20890712738037109375e-01) (150, -4.80796486139297485352e-01) (151, 1.73041801452636718750e+01) (152, 1.50000000000000000000e+03) (153, 8.03967058658599853516e-01) (154, 2.25626707077026367188e+00) (155, -4.98803138732910156250e-01) (156, -8.93968529999256134033e-03) (157, -6.30211591720581054688e-01) (158, -2.14993333816528320312e+00) (159, -3.66992682218551635742e-01) (160, 1.50000000000000000000e+03) (161, -4.35398370027542114258e-01) (0, -7.74594366550445556641e-01) (1, 2.03609541058540344238e-01) (2, -2.72581607103347778320e-01) (3, 5.23220598697662353516e-02) (4, 4.90704071044921875000e+02) (5, 7.56597071886062622070e-02) (6, -6.27170383930206298828e-01) (7, 1.50727316737174987793e-01) (8, 1.77165463566780090332e-01) (9, 1.03695996105670928955e-01) (10, -4.51720952987670898438e-02) (11, 3.39098930358886718750e-01) (12, 9.05538678169250488281e-01) (13, 1.45791739225387573242e-01) (14, -2.10305713117122650146e-02) (15, 3.58418512344360351562e+00) (16, 2.01288029551506042480e-01) (17, 2.71118581295013427734e-01) (18, 2.62315571308135986328e-02) (19, 1.36869862675666809082e-01) (20, 1.96319833397865295410e-01) (21, 8.04780125617980957031e-02) (22, 4.37990650534629821777e-02) (23, 1.53700664639472961426e-01) (24, 2.89737254381179809570e-01) (25, -6.27332687377929687500e-01) (26, 2.95739740133285522461e-01) (27, 1.50000000000000000000e+03) (28, -1.50000000000000000000e+03) (29, 1.50000000000000000000e+03) (30, 1.50000000000000000000e+03) (31, 1.50000000000000000000e+03) (32, 1.50000000000000000000e+03) (33, -2.98312713623046875000e+02) (34, 3.46760635375976562500e+01) (35, 4.40156593322753906250e+01) (36, 1.50000000000000000000e+03) (37, 1.50000000000000000000e+03) (38, 1.50000000000000000000e+03) (39, 1.50000000000000000000e+03) (40, -2.54513824462890625000e+02) (41, 1.50000000000000000000e+03) (42, 1.75243663787841796875e+01) (43, -9.16006713867187500000e+02) (44, 4.15969789028167724609e-01) (45, -7.28376293182373046875e+00) (46, -3.23214111328125000000e+01) (47, 1.73293143510818481445e-01) (48, 6.66832504272460937500e+01) (49, 2.45460109710693359375e+01) (50, 8.07591629028320312500e+00) (51, 3.16079795360565185547e-01) (52, -1.57270979881286621094e+00) (53, -1.58994227647781372070e-01) (54, 3.83842498064041137695e-01) (55, -4.07129383087158203125e+00) (56, 4.26773279905319213867e-01) (57, -2.56193572998046875000e+02) (58, 5.29500122070312500000e+02) (59, 1.33550441265106201172e+00) (60, -6.68934434652328491211e-02) (61, -4.75538539886474609375e+00) (62, -9.04794037342071533203e-01) (63, -2.74564056396484375000e+02) (64, -8.15196418762207031250e+00) (65, -5.33111238479614257812e+00) (66, -3.67858743667602539062e+00) (67, -5.25075645446777343750e+01) (68, 3.63481312990188598633e-01) (69, -5.93341231346130371094e-01) (70, -8.99679899215698242188e-01) (71, 2.28151515126228332520e-01) (72, 2.45568537712097167969e+00) (73, -3.52134406566619873047e-01) (74, -1.87094241380691528320e-01) (75, -9.54290926456451416016e-01) (76, -2.39473032951354980469e+00) (77, -9.58022940903902053833e-03) (78, -1.44398612976074218750e+01) (79, 4.78479461669921875000e+01) (80, -1.68409228324890136719e-01) (81, 6.23098449707031250000e+01) (82, 2.87829589843750000000e+00) (83, 4.36487674713134765625e-01) (84, 9.52474623918533325195e-02) (85, -3.84568290710449218750e+01) (86, 3.66230547428131103516e-01) (87, 4.16775608062744140625e+00) (88, 6.77492380142211914062e-01) (89, -6.56808316707611083984e-02) (90, 2.55648827552795410156e+00) (91, 4.09815400838851928711e-01) (92, -7.78547003865242004395e-02) (93, -1.11071510314941406250e+01) (94, -2.45305132865905761719e+00) (95, -6.76037645339965820312e+00) (96, 3.95647001266479492188e+00) (97, -2.00137972831726074219e+00) (98, 4.16183508932590484619e-02) (99, -9.18235015869140625000e+00) (100, 5.65425008535385131836e-02) (101, 2.26793304085731506348e-01) (102, -7.06668281555175781250e+00) (103, -4.69186574220657348633e-01) (104, 1.70190617442131042480e-01) (105, 4.00231391191482543945e-01) (106, 5.37455260753631591797e-01) (107, 5.95616139471530914307e-02) (108, 7.80320968627929687500e+01) (109, 1.22912883758544921875e+00) (110, 1.66390493512153625488e-01) (111, 1.50000000000000000000e+03) (112, 1.50000000000000000000e+03) (113, -6.99529266357421875000e+00) (114, 1.50000000000000000000e+03) (115, 9.37178230285644531250e+00) (116, -2.74723029136657714844e+00) (117, 2.74823498725891113281e+00) (118, 8.07284653186798095703e-01) (119, 7.66812413930892944336e-02) (120, 1.50000000000000000000e+03) (121, 1.50000000000000000000e+03) (122, -1.69899141788482666016e+00) (123, 1.50000000000000000000e+03) (124, -6.69455718994140625000e+01) (125, -9.66483473777770996094e-01) (126, -1.41923105716705322266e+00) (127, -6.84722304344177246094e-01) (128, -1.39382258057594299316e-01) (129, 1.79576963186264038086e-01) (130, -2.18376189470291137695e-01) (131, -3.47937762737274169922e-01) (132, 9.72836986184120178223e-02) (133, -3.79091906547546386719e+00) (134, 2.13848546147346496582e-01) (135, 2.78828501701354980469e-01) (136, 1.63874700665473937988e-01) (137, 5.62988221645355224609e-01) (138, 1.50000000000000000000e+03) (139, 7.23449528217315673828e-01) (140, 1.50000000000000000000e+03) (141, 1.47529900074005126953e-01) (142, -2.70282566547393798828e-01) (143, -4.20494705438613891602e-01) (144, -3.16907346248626708984e-01) (145, -1.60071158409118652344e+00) (146, 1.02448475360870361328e+00) (147, -7.65003636479377746582e-02) (148, 9.22251343727111816406e-02) (149, -3.98301798850297927856e-03) (150, 1.56598806381225585938e-01) (151, 1.83057785034179687500e-02) (152, 1.50000000000000000000e+03) (153, -1.39538776874542236328e+00) (154, 3.62778753042221069336e-01) (155, 1.86217293143272399902e-01) (156, -2.12375279515981674194e-02) (157, -5.44789195060729980469e-01) (158, 3.35023969411849975586e-01) (159, -3.24640899896621704102e-01) (160, 1.50000000000000000000e+03) (161, 1.24769181013107299805e-01) (0, -9.47452902793884277344e-01) (1, 1.84088245034217834473e-01) (2, -1.03354144096374511719e+00) (3, -6.14394187927246093750e-01) (4, -1.03391952514648437500e+01) (5, 2.63242572546005249023e-01) (6, -9.52336668968200683594e-01) (7, 2.17273965477943420410e-01) (8, 4.63670790195465087891e-02) (9, 2.61240988969802856445e-01) (10, 8.36684778332710266113e-02) (11, 2.60998368263244628906e-01) (12, 1.69384098052978515625e+00) (13, 1.02254815399646759033e-01) (14, 1.66650801897048950195e-01) (15, -6.47577762603759765625e-01) (16, 4.07864227890968322754e-02) (17, 1.29885867238044738770e-01) (18, -1.51742249727249145508e-01) (19, 2.50938296318054199219e-01) (20, 1.29012003540992736816e-01) (21, 1.03566043078899383545e-01) (22, 1.97918534278869628906e-01) (23, 7.44192823767662048340e-02) (24, 9.76470565795898437500e+00) (25, -3.27004194259643554688e-02) (26, 2.10223123431205749512e-01) (27, 1.50000000000000000000e+03) (28, -1.50000000000000000000e+03) (29, 1.50000000000000000000e+03) (30, 1.50000000000000000000e+03) (31, 1.50000000000000000000e+03) (32, 1.50000000000000000000e+03) (33, -1.01254669189453125000e+03) (34, 2.01689910888671875000e+01) (35, -4.44865264892578125000e+02) (36, 1.50000000000000000000e+03) (37, 1.50000000000000000000e+03) (38, 1.50000000000000000000e+03) (39, 1.50000000000000000000e+03) (40, 1.31043750000000000000e+03) (41, 1.50000000000000000000e+03) (42, 2.40019702911376953125e+01) (43, -1.07608100891113281250e+02) (44, -2.42656898498535156250e+00) (45, -1.37986650466918945312e+01) (46, 5.08265419006347656250e+01) (47, 2.00953826308250427246e-01) (48, 3.67359924316406250000e+01) (49, -5.53422607421875000000e+02) (50, -1.88757285475730895996e-01) (51, 3.45935493707656860352e-01) (52, 3.16143822669982910156e+00) (53, -1.60585150122642517090e-01) (54, 5.83109474182128906250e+00) (55, -4.22636079788208007812e+00) (56, 4.47662949562072753906e-01) (57, 2.10302383422851562500e+02) (58, -4.03268432617187500000e+01) (59, 7.91412651538848876953e-01) (60, 4.07148933410644531250e+00) (61, -2.77352714538574218750e+00) (62, -9.37231421470642089844e-01) (63, -4.92541046142578125000e+01) (64, 5.70512084960937500000e+01) (65, -1.45973396301269531250e+00) (66, -1.50848865509033203125e-01) (67, -3.36573867797851562500e+01) (68, 3.37905824184417724609e-01) (69, 7.13013768196105957031e-01) (70, -8.46214652061462402344e-01) (71, 7.55975916981697082520e-02) (72, 2.71136116981506347656e+00) (73, -8.54765772819519042969e-01) (74, -1.05624429881572723389e-01) (75, 9.94448542594909667969e-01) (76, -2.60862755775451660156e+00) (77, 1.95045948028564453125e-01) (78, -5.05992269515991210938e+00) (79, 7.45904693603515625000e+01) (80, 1.56209826469421386719e-01) (81, 6.62800216674804687500e+00) (82, 1.24337363243103027344e+00) (83, 2.97808438539505004883e-01) (84, -3.30522030591964721680e-01) (85, -2.27492111206054687500e+02) (86, 2.66913682222366333008e-01) (87, 1.77312481403350830078e+00) (88, 2.93496638536453247070e-01) (89, 1.59406978636980056763e-02) (90, -1.72820687294006347656e+00) (91, 1.43243327736854553223e-01) (92, 9.60290357470512390137e-02) (93, -4.48685216903686523438e+00) (94, -4.07991981506347656250e+01) (95, -2.52461582422256469727e-01) (96, 1.44667444229125976562e+01) (97, -2.14020323753356933594e+00) (98, 4.75371591746807098389e-02) (99, -9.99757528305053710938e-01) (100, 2.16214135289192199707e-01) (101, 2.30498582124710083008e-01) (102, -8.50677073001861572266e-01) (103, -2.35330247879028320312e+00) (104, 1.36698544025421142578e-01) (105, 2.87535130977630615234e-01) (106, -7.70687386393547058105e-02) (107, 7.44355916976928710938e-02) (108, -3.45801811218261718750e+01) (109, 1.02656328678131103516e+00) (110, -8.67190510034561157227e-02) (111, 1.50000000000000000000e+03) (112, 1.50000000000000000000e+03) (113, -7.28504610061645507812e+00) (114, 1.50000000000000000000e+03) (115, 4.74571762084960937500e+01) (116, -7.48718023300170898438e-01) (117, 6.70943677425384521484e-01) (118, 3.03346246480941772461e-01) (119, 1.92020758986473083496e-02) (120, 1.50000000000000000000e+03) (121, 1.50000000000000000000e+03) (122, -4.35824298858642578125e+00) (123, 1.50000000000000000000e+03) (124, 3.78964453935623168945e-01) (125, -4.51096343994140625000e+00) (126, -1.50543546676635742188e+00) (127, -9.00238633155822753906e-01) (128, -1.40996575355529785156e-02) (129, 5.20273447036743164062e-01) (130, 2.10889860987663269043e-01) (131, -5.81672191619873046875e-01) (132, 1.33856058120727539062e-01) (133, -1.50676739215850830078e+00) (134, 1.86366900801658630371e-01) (135, 1.28281164169311523438e+00) (136, 4.87711355090141296387e-02) (137, 5.11785566806793212891e-01) (138, 1.50000000000000000000e+03) (139, 8.25669944286346435547e-01) (140, 1.50000000000000000000e+03) (141, 1.28415656089782714844e+00) (142, -1.25542163848876953125e-01) (143, 7.79502242803573608398e-02) (144, 3.15772071480751037598e-02) (145, -1.29494595527648925781e+00) (146, 3.64945113658905029297e-01) (147, -1.70234113931655883789e-01) (148, -8.38839948177337646484e-01) (149, -1.65620744228363037109e-02) (150, 7.93428495526313781738e-02) (151, 4.05423998832702636719e-01) (152, 1.50000000000000000000e+03) (153, -8.86127650737762451172e-01) (154, 6.39565348625183105469e-01) (155, 1.90585643053054809570e-01) (156, -8.60513746738433837891e-02) (157, -6.95557832717895507812e-01) (158, 2.64198184013366699219e-01) (159, -3.30716818571090698242e-02) (160, 1.50000000000000000000e+03) (161, 1.14713139832019805908e-01) (0, 5.45971214771270751953e-01) (1, -3.78379464149475097656e-01) (2, 2.63604104518890380859e-01) (3, 5.61120262145996093750e+01) (4, 7.27949523925781250000e+01) (5, 8.85123252868652343750e-01) (6, 4.95285391807556152344e-01) (7, -1.11157596111297607422e-01) (8, 1.05406001210212707520e-01) (9, -1.09623052179813385010e-01) (10, 2.06320118159055709839e-02) (11, -2.34693095088005065918e-01) (12, 4.01481121778488159180e-01) (13, 1.35316103696823120117e-01) (14, 1.81345582008361816406e-01) (15, 4.03556555509567260742e-01) (16, -1.60141897201538085938e+00) (17, -4.56361532211303710938e-01) (18, 3.14220428466796875000e-01) (19, -7.15912759304046630859e-01) (20, -5.33214211463928222656e-01) (21, -1.44571602344512939453e-01) (22, 1.09684668481349945068e-01) (23, 4.67627912759780883789e-01) (24, -2.51256465911865234375e-01) (25, -4.73950266838073730469e-01) (26, 1.53729724884033203125e+00) (27, 1.50000000000000000000e+03) (28, 1.50000000000000000000e+03) (29, 1.50000000000000000000e+03) (30, 1.50000000000000000000e+03) (31, 1.50000000000000000000e+03) (32, 1.50000000000000000000e+03) (33, 3.09202423095703125000e+02) (34, -9.63712692260742187500e+01) (35, 2.20206161499023437500e+02) (36, 1.50000000000000000000e+03) (37, 1.50000000000000000000e+03) (38, 1.50000000000000000000e+03) (39, 1.50000000000000000000e+03) (40, 1.48839050292968750000e+03) (41, 1.50000000000000000000e+03) (42, 2.31933555603027343750e+01) (43, 5.52907104492187500000e+02) (44, 2.83735160827636718750e+01) (45, 3.16780609130859375000e+02) (46, -1.84147891998291015625e+01) (47, -2.38261222839355468750e-01) (48, -4.65034576416015625000e+02) (49, 2.17250823974609375000e-01) (50, -8.44362068176269531250e+00) (51, -4.82719182968139648438e+00) (52, -1.92164535522460937500e+01) (53, -1.14112579822540283203e+00) (54, -1.13436765670776367188e+01) (55, 2.98034458160400390625e+01) (56, -6.60692989826202392578e-01) (57, -5.50894226074218750000e+02) (58, -2.13057464599609375000e+02) (59, 4.79628486633300781250e+01) (60, 1.41683173179626464844e+00) (61, 1.90288031101226806641e+00) (62, 5.10462820529937744141e-01) (63, -1.28567087650299072266e+00) (64, -2.93920654296875000000e+02) (65, 5.31497669219970703125e+00) (66, 7.94158983230590820312e+00) (67, -7.63120055198669433594e-01) (68, -2.82723069190979003906e-01) (69, 2.77172893285751342773e-01) (70, 3.77131462097167968750e+00) (71, -3.55540335178375244141e-01) (72, -1.64674568176269531250e+00) (73, 7.10386753082275390625e-01) (74, 4.44847196340560913086e-01) (75, 5.00140905380249023438e-01) (76, 1.22735762596130371094e+00) (77, 2.38421872258186340332e-01) (78, 1.06411117553710937500e+02) (79, -2.82768310546875000000e+02) (80, -2.48236715793609619141e-01) (81, -1.87269359827041625977e-01) (82, 1.55626964569091796875e+00) (83, 5.79886388778686523438e+00) (84, 3.17780900001525878906e+00) (85, 7.82661315917968750000e+02) (86, -5.64714729785919189453e-01) (87, -6.78684759140014648438e+00) (88, 1.09142273664474487305e-01) (89, 1.26972179859876632690e-02) (90, -8.08775043487548828125e+00) (91, -1.01011499762535095215e-01) (92, 1.82222217321395874023e-01) (93, -5.98764305114746093750e+01) (94, -3.35604619979858398438e+00) (95, 1.97395455837249755859e+00) (96, -1.11149349212646484375e+01) (97, 3.88373041152954101562e+00) (98, 2.96388775110244750977e-01) (99, -3.21125531196594238281e+00) (100, -5.30578651428222656250e+01) (101, -4.48845267295837402344e-01) (102, -3.76848250627517700195e-01) (103, 2.09272623062133789062e+00) (104, 6.08817525207996368408e-02) (105, -3.08781057596206665039e-01) (106, 5.58988838195800781250e+01) (107, 4.17106114327907562256e-02) (108, 2.94586822509765625000e+02) (109, 1.27981173992156982422e+00) (110, 1.23354226350784301758e-01) (111, 1.50000000000000000000e+03) (112, 1.50000000000000000000e+03) (113, -1.45625919103622436523e-01) (114, 1.50000000000000000000e+03) (115, -1.38489007949829101562e+01) (116, 6.81388616561889648438e-01) (117, -1.13860082626342773438e+01) (118, 4.13379287719726562500e+00) (119, 1.01486396789550781250e+00) (120, 1.50000000000000000000e+03) (121, 1.50000000000000000000e+03) (122, 1.90519287109375000000e+02) (123, 1.50000000000000000000e+03) (124, 2.77559494972229003906e+00) (125, 4.21543455123901367188e+00) (126, 5.85547089576721191406e-01) (127, 9.20534133911132812500e-01) (128, 4.37457859516143798828e-01) (129, -5.28562486171722412109e-01) (130, 1.47090315818786621094e+00) (131, 1.98609218001365661621e-01) (132, -2.14309167861938476562e+00) (133, 7.01709032058715820312e-01) (134, 6.01232163608074188232e-02) (135, -8.75065684318542480469e-01) (136, 9.18082445859909057617e-02) (137, -1.69604957103729248047e-01) (138, 1.50000000000000000000e+03) (139, -6.12746059894561767578e-01) (140, 1.50000000000000000000e+03) (141, 1.40465104579925537109e+00) (142, 8.26438605785369873047e-01) (143, 8.36319327354431152344e-02) (144, 3.91312167048454284668e-02) (145, 7.43478536605834960938e-01) (146, -5.09335398674011230469e-01) (147, 8.31438064575195312500e-01) (148, -1.26111097633838653564e-02) (149, 2.27210879325866699219e-01) (150, -6.69023245573043823242e-02) (151, 5.32289505004882812500e-01) (152, 1.50000000000000000000e+03) (153, 4.00619220733642578125e+00) (154, -1.50271129608154296875e+00) (155, -4.20480042695999145508e-01) (156, 4.22339469194412231445e-01) (157, -3.44828546047210693359e-01) (158, -8.31280946731567382812e-01) (159, 1.12676477432250976562e+00) (160, 1.50000000000000000000e+03) (161, -1.37738317251205444336e-01) (0, -1.54390811920166015625e+00) (1, -5.26286382228136062622e-03) (2, -3.53917777538299560547e-01) (3, 1.05098934173583984375e+01) (4, 7.71292266845703125000e+01) (5, 7.12021713256835937500e+01) (6, -2.13657927513122558594e+00) (7, -3.84173899888992309570e-01) (8, -3.73622059822082519531e-01) (9, -5.53792953491210937500e-01) (10, -1.89308464527130126953e+00) (11, 7.39968940615653991699e-02) (12, -7.30228364467620849609e-01) (13, -5.29946386814117431641e-01) (14, -4.03427541255950927734e-01) (15, -1.87956738471984863281e+00) (16, 6.03471696376800537109e-01) (17, -1.44750461578369140625e+01) (18, -8.05051028728485107422e-01) (19, -2.39418938755989074707e-01) (20, -5.25545775890350341797e-02) (21, -5.10680675506591796875e-01) (22, -4.68421041965484619141e-01) (23, -8.93378734588623046875e-01) (24, -6.11539781093597412109e-01) (25, -1.32243213653564453125e+01) (26, -1.04146075248718261719e+00) (27, 1.50000000000000000000e+03) (28, -7.37217773437500000000e+02) (29, 1.50000000000000000000e+03) (30, 1.50000000000000000000e+03) (31, 1.50000000000000000000e+03) (32, 1.50000000000000000000e+03) (33, -5.19335083007812500000e+02) (34, 4.09642944335937500000e+01) (35, 6.19563179016113281250e+01) (36, 1.50000000000000000000e+03) (37, 1.50000000000000000000e+03) (38, 1.50000000000000000000e+03) (39, 1.50000000000000000000e+03) (40, -5.83221435546875000000e+02) (41, 1.50000000000000000000e+03) (42, 2.01271228790283203125e+01) (43, -4.87962951660156250000e+01) (44, -4.54559755325317382812e+00) (45, -2.03899073600769042969e+00) (46, -1.13818197250366210938e+01) (47, -5.12101602554321289062e+00) (48, -8.23646484375000000000e+02) (49, 4.81527938842773437500e+01) (50, 1.01117343902587890625e+01) (51, 1.66456558227539062500e+02) (52, -1.63113045692443847656e+00) (53, 2.30671331286430358887e-01) (54, 2.89296112060546875000e+02) (55, -8.32982158660888671875e+00) (56, 1.90629518032073974609e+00) (57, -1.40549575805664062500e+02) (58, 8.93320007324218750000e+02) (59, -2.84526169300079345703e-01) (60, -9.91873264312744140625e-01) (61, -6.05905914306640625000e+00) (62, -4.41034460067749023438e+00) (63, -9.36826171875000000000e+02) (64, -7.78958415985107421875e+00) (65, -1.03215551376342773438e+01) (66, -8.81561815738677978516e-01) (67, -7.81937011718750000000e+02) (68, -2.73432344198226928711e-01) (69, 6.40098989009857177734e-01) (70, -4.35946769714355468750e+01) (71, -1.15169966220855712891e+00) (72, 1.38458776473999023438e+01) (73, -4.23615264892578125000e+00) (74, -5.04303812980651855469e-01) (75, 1.36543617248535156250e+01) (76, -4.03862857818603515625e+00) (77, -5.48752665519714355469e-01) (78, 3.56439910888671875000e+02) (79, 1.91765747070312500000e+01) (80, -1.83033485412597656250e+01) (81, 4.55402107238769531250e+01) (82, 3.08758527040481567383e-01) (83, 1.03587731719017028809e-02) (84, 3.79991340637207031250e+01) (85, -3.39052429199218750000e+01) (86, -1.63805639743804931641e+00) (87, 5.62258434295654296875e+00) (88, -9.89703647792339324951e-03) (89, -5.92425942420959472656e-01) (90, 5.62833976745605468750e+00) (91, 5.83877086639404296875e-01) (92, -6.21895253658294677734e-01) (93, 1.68170762062072753906e+00) (94, -9.99807262420654296875e+00) (95, -7.84026682376861572266e-01) (96, 1.72051817178726196289e-01) (97, 1.41586288809776306152e-01) (98, -6.20199203491210937500e-01) (99, -1.99751777648925781250e+01) (100, -1.35708677768707275391e+00) (101, -3.24374616146087646484e-01) (102, 2.84050740301609039307e-02) (103, -2.44584774971008300781e+00) (104, -5.41595280170440673828e-01) (105, 5.05868244171142578125e+00) (106, 7.07143098115921020508e-02) (107, -5.11843383312225341797e-01) (108, -9.47831571102142333984e-01) (109, -9.06929522752761840820e-02) (110, -8.33190798759460449219e-01) (111, 1.50000000000000000000e+03) (112, 1.50000000000000000000e+03) (113, 3.74050402641296386719e+00) (114, 1.50000000000000000000e+03) (115, 4.07381706237792968750e+01) (116, -2.36348285675048828125e+01) (117, 2.18244481086730957031e+00) (118, 5.72368919849395751953e-01) (119, -9.69414472579956054688e-01) (120, 1.50000000000000000000e+03) (121, 1.50000000000000000000e+03) (122, 2.89368987083435058594e+00) (123, 1.50000000000000000000e+03) (124, 6.58590555191040039062e+00) (125, 6.26444292068481445312e+00) (126, -1.95426452159881591797e+00) (127, -7.98940718173980712891e-01) (128, -2.45904162526130676270e-01) (129, 2.21813249588012695312e+00) (130, -4.69933241605758666992e-01) (131, -7.85518050193786621094e-01) (132, -4.73097652196884155273e-01) (133, -2.19695625305175781250e+01) (134, -5.30642449855804443359e-01) (135, 1.20271635055541992188e+00) (136, -8.50386619567871093750e-01) (137, 8.02756071090698242188e-01) (138, 1.50000000000000000000e+03) (139, 3.28796356916427612305e-01) (140, 1.50000000000000000000e+03) (141, -7.57180213928222656250e-01) (142, 9.08797740936279296875e+00) (143, -2.68311548233032226562e+00) (144, -5.46081495285034179688e+00) (145, -8.42124080657958984375e+00) (146, 4.97232198715209960938e-01) (147, -2.03032612800598144531e+00) (148, -1.46889328956604003906e+00) (149, -5.36028981208801269531e-01) (150, -4.55522507429122924805e-01) (151, 2.48054838180541992188e+00) (152, 1.50000000000000000000e+03) (153, -1.47945518493652343750e+01) (154, 1.46803498268127441406e+00) (155, -4.98813062906265258789e-01) (156, -6.15080237388610839844e-01) (157, -8.16117227077484130859e-01) (158, -8.92582168579101562500e+01) (159, -6.35563861578702926636e-03) (160, 1.50000000000000000000e+03) (161, -4.85807090997695922852e-01) (0, -5.04404127597808837891e-01) (1, 1.63778945803642272949e-01) (2, -1.03653681278228759766e+00) (3, 5.12607765197753906250e+01) (4, 5.37358581542968750000e+02) (5, 7.63890683650970458984e-01) (6, -5.91958403587341308594e-01) (7, 2.72367775440216064453e-01) (8, 9.23502817749977111816e-02) (9, 1.32548660039901733398e-01) (10, 3.25798429548740386963e-02) (11, 2.95282065868377685547e-01) (12, 1.11699247360229492188e+00) (13, 1.65288388729095458984e-01) (14, -6.76353201270103454590e-02) (15, 1.55134735107421875000e+01) (16, -6.21123015880584716797e-01) (17, 3.65860104560852050781e+00) (18, -5.41631996631622314453e-01) (19, 1.24571554362773895264e-01) (20, 5.51224388182163238525e-02) (21, 1.37832790613174438477e-01) (22, -1.48773074150085449219e+00) (23, 1.41139364242553710938e+00) (24, 9.62510228157043457031e-01) (25, 1.91361084580421447754e-02) (26, 3.26328307390213012695e-01) (27, 1.50000000000000000000e+03) (28, -1.50000000000000000000e+03) (29, 1.50000000000000000000e+03) (30, 1.50000000000000000000e+03) (31, 1.50000000000000000000e+03) (32, 1.50000000000000000000e+03) (33, -1.01608380126953125000e+03) (34, 1.99723396301269531250e+01) (35, 1.28982055664062500000e+02) (36, 1.50000000000000000000e+03) (37, 1.50000000000000000000e+03) (38, 1.50000000000000000000e+03) (39, 1.50000000000000000000e+03) (40, -2.51974899291992187500e+02) (41, 1.50000000000000000000e+03) (42, 1.07558765411376953125e+01) (43, -1.03188989257812500000e+03) (44, 9.72492599487304687500e+01) (45, -7.94184509277343750000e+02) (46, -1.06811141967773437500e+01) (47, -9.91501212120056152344e-02) (48, -4.33682327270507812500e+01) (49, 3.96684670448303222656e+00) (50, -6.46004772186279296875e+00) (51, 1.79608352661132812500e+02) (52, -7.54011750221252441406e-01) (53, 1.47253704071044921875e+00) (54, 1.97657954692840576172e+00) (55, -9.90186882019042968750e+00) (56, 2.33493924140930175781e+00) (57, -1.13283496093750000000e+03) (58, 2.85884368896484375000e+02) (59, 4.78132867813110351562e+00) (60, 1.31140279769897460938e+01) (61, -2.01722788810729980469e+00) (62, -2.25008659362792968750e+01) (63, -4.60429260253906250000e+02) (64, -4.72217102050781250000e+01) (65, -7.30615258216857910156e-02) (66, -2.00848981738090515137e-01) (67, -4.00901184082031250000e+01) (68, 1.60287249088287353516e+00) (69, -3.60120697021484375000e+01) (70, -2.09582090377807617188e+00) (71, 8.67880135774612426758e-02) (72, 2.48587465286254882812e+00) (73, -2.94775128364562988281e-01) (74, -2.06362202763557434082e-01) (75, -4.45638942718505859375e+00) (76, -2.60875248908996582031e+00) (77, 1.01690970361232757568e-01) (78, -5.73532348632812500000e+02) (79, 2.22025508880615234375e+01) (80, 8.19098174571990966797e-01) (81, 5.54521484375000000000e+02) (82, 4.10811948776245117188e+00) (83, 9.67267513275146484375e+00) (84, -2.19919323921203613281e-01) (85, -2.29298343658447265625e+01) (86, 3.49216580390930175781e-01) (87, -4.47650289535522460938e+00) (88, 5.54023802280426025391e-01) (89, -7.43590146303176879883e-02) (90, 1.23526072502136230469e+00) (91, 1.00167143344879150391e+00) (92, -2.55991369485855102539e-02) (93, -1.46703433990478515625e+01) (94, -1.14501619338989257812e+00) (95, -3.24395179748535156250e-01) (96, -4.54758224487304687500e+01) (97, -9.04502511024475097656e-01) (98, 1.03218890726566314697e-01) (99, -3.86968002319335937500e+01) (100, -2.24972695112228393555e-01) (101, 3.93777132034301757812e-01) (102, 5.79507446289062500000e+00) (103, -4.37924981117248535156e-01) (104, 2.13895842432975769043e-01) (105, 1.63567960262298583984e-01) (106, 4.41550433635711669922e-01) (107, 6.98164179921150207520e-02) (108, 2.31333427429199218750e+01) (109, 8.26379537582397460938e-01) (110, 4.23505939543247222900e-02) (111, 1.50000000000000000000e+03) (112, 1.50000000000000000000e+03) (113, -6.84257507324218750000e+00) (114, 1.50000000000000000000e+03) (115, 7.89243650436401367188e+00) (116, 1.59339408874511718750e+01) (117, -7.99992656707763671875e+00) (118, 8.20355474948883056641e-01) (119, 8.04460048675537109375e-02) (120, 1.50000000000000000000e+03) (121, 1.50000000000000000000e+03) (122, -5.90664803981781005859e-01) (123, 1.50000000000000000000e+03) (124, -3.49243896484375000000e+02) (125, -1.04071676731109619141e-01) (126, -1.83898150920867919922e+00) (127, 1.40058720111846923828e+00) (128, -1.09918192028999328613e-01) (129, 3.38123321533203125000e-01) (130, -1.25304222106933593750e+00) (131, -1.19920945167541503906e+00) (132, 1.46614611148834228516e-01) (133, -2.67717051506042480469e+00) (134, 1.91136538982391357422e-01) (135, 3.24180960655212402344e-01) (136, 5.69197759032249450684e-02) (137, 1.56427013874053955078e+00) (138, 1.50000000000000000000e+03) (139, 2.28859615325927734375e+00) (140, 1.50000000000000000000e+03) (141, -2.01815557479858398438e+00) (142, -4.92015242576599121094e-01) (143, -1.26167014241218566895e-01) (144, -1.14097431302070617676e-01) (145, -1.06066405773162841797e+00) (146, 6.75381660461425781250e-01) (147, -6.74887299537658691406e-02) (148, -2.58393913507461547852e-01) (149, 3.42821516096591949463e-02) (150, 1.46332144737243652344e-01) (151, -8.15809631347656250000e+00) (152, 1.50000000000000000000e+03) (153, -9.88995432853698730469e-01) (154, 4.91688489913940429688e-01) (155, 1.58750057220458984375e-01) (156, -1.16957597434520721436e-01) (157, -4.99102622270584106445e-01) (158, 3.75511258840560913086e-01) (159, -8.95792067050933837891e-01) (160, 1.50000000000000000000e+03) (161, 8.87794047594070434570e-02) (0, -7.07526326179504394531e-01) (1, 3.32708144187927246094e+00) (2, -2.86393821239471435547e-01) (3, -1.34610626220703125000e+02) (4, 7.91584014892578125000e+01) (5, 4.93228626251220703125e+00) (6, -5.16249895095825195312e-01) (7, -3.85538250207901000977e-01) (8, -2.93243736028671264648e-01) (9, -3.54593932628631591797e-01) (10, -1.56592750549316406250e+00) (11, 3.16637661308050155640e-03) (12, -7.63041019439697265625e-01) (13, -4.35912519693374633789e-01) (14, -3.64632517099380493164e-01) (15, -7.01624345779418945312e+00) (16, 1.10217228531837463379e-01) (17, -1.73383712768554687500e+01) (18, -5.41998267173767089844e-01) (19, -8.26801061630249023438e-02) (20, 2.78655076026916503906e+00) (21, 2.82630175352096557617e-01) (22, -1.10658109188079833984e+00) (23, -7.84413158893585205078e-01) (24, -4.63970899581909179688e+00) (25, 1.33971536159515380859e+00) (26, 8.53192806243896484375e-01) (27, 1.50000000000000000000e+03) (28, -9.76336425781250000000e+02) (29, 1.50000000000000000000e+03) (30, 1.50000000000000000000e+03) (31, 1.50000000000000000000e+03) (32, 1.50000000000000000000e+03) (33, -1.83813800811767578125e+01) (34, 2.08056735992431640625e+01) (35, -3.30349807739257812500e+01) (36, 1.50000000000000000000e+03) (37, 1.50000000000000000000e+03) (38, 1.50000000000000000000e+03) (39, 1.50000000000000000000e+03) (40, 1.12589195251464843750e+02) (41, 1.50000000000000000000e+03) (42, 8.18684204101562500000e+02) (43, 2.53697547912597656250e+01) (44, 5.16981239318847656250e+01) (45, 1.29170959472656250000e+02) (46, 3.77772026062011718750e+01) (47, -1.99798032641410827637e-01) (48, -6.04008789062500000000e+02) (49, 1.50000000000000000000e+03) (50, 7.64890003204345703125e+00) (51, -4.84018745422363281250e+01) (52, -2.80985331535339355469e+00) (53, -4.17816352844238281250e+00) (54, -1.19708938598632812500e+02) (55, -4.27616405487060546875e+00) (56, 3.72678089141845703125e+00) (57, -2.27462738037109375000e+02) (58, 4.67094055175781250000e+02) (59, -1.65680770874023437500e+01) (60, 6.05433225631713867188e+00) (61, 1.92887544631958007812e+00) (62, 3.71673965454101562500e+00) (63, -4.31770965576171875000e+02) (64, -2.81643615722656250000e+02) (65, 5.21319687366485595703e-01) (66, -7.80722856521606445312e+00) (67, 1.32751536369323730469e+00) (68, -7.86026120185852050781e-02) (69, 1.78197631835937500000e+01) (70, 1.00358398437500000000e+02) (71, 1.42250135540962219238e-02) (72, 2.63911795616149902344e+00) (73, 1.97883397340774536133e-01) (74, -5.93281209468841552734e-01) (75, 7.28360176086425781250e+00) (76, -7.27318096160888671875e+00) (77, -5.28010487556457519531e-01) (78, 7.12887954711914062500e+01) (79, 1.30437164306640625000e+01) (80, 1.44921588897705078125e+00) (81, -8.92631988525390625000e+01) (82, 2.58565950393676757812e+00) (83, -3.03741633892059326172e-01) (84, -3.72438446044921875000e+02) (85, -4.33919342041015625000e+02) (86, -1.63095092773437500000e+01) (87, 2.47097072601318359375e+01) (88, 5.11354017257690429688e+00) (89, -4.33212488889694213867e-01) (90, 4.01112136840820312500e+01) (91, 2.92248010635375976562e+00) (92, -4.78333711624145507812e-01) (93, -9.63183641433715820312e-01) (94, -4.44666557312011718750e+01) (95, -2.30929106473922729492e-01) (96, 5.32007217407226562500e+00) (97, -1.30844080448150634766e+00) (98, -5.02686798572540283203e-01) (99, -2.55846195220947265625e+01) (100, -7.89803981781005859375e+00) (101, -1.96928620338439941406e-01) (102, -3.55649490356445312500e+01) (103, -9.17012405395507812500e+00) (104, -5.38936734199523925781e-01) (105, 1.91189497709274291992e-01) (106, -1.95469558238983154297e-01) (107, -5.63870072364807128906e-01) (108, -7.72875595092773437500e+00) (109, 1.56854784488677978516e+00) (110, -5.80022454261779785156e-01) (111, 1.50000000000000000000e+03) (112, 1.50000000000000000000e+03) (113, -2.57655715942382812500e+01) (114, 1.50000000000000000000e+03) (115, 4.12139549255371093750e+01) (116, -1.10060729980468750000e+01) (117, 6.34877443313598632812e+00) (118, 1.28626966476440429688e+00) (119, -3.89011240005493164062e+00) (120, 1.50000000000000000000e+03) (121, 1.50000000000000000000e+03) (122, 2.35005068778991699219e+00) (123, 1.50000000000000000000e+03) (124, -2.00659923553466796875e+01) (125, -2.57888977050781250000e+02) (126, -5.41334033012390136719e-01) (127, -7.55599617958068847656e-01) (128, -3.54813814163208007812e-01) (129, 1.37002742290496826172e+00) (130, -1.54210758209228515625e+00) (131, -2.54646569490432739258e-01) (132, -4.61519718170166015625e-01) (133, -3.72785449028015136719e+00) (134, -4.57739531993865966797e-01) (135, 1.88350987434387207031e+00) (136, -4.92281168699264526367e-01) (137, 1.04363238811492919922e+00) (138, 1.50000000000000000000e+03) (139, 7.02290415763854980469e-01) (140, 1.50000000000000000000e+03) (141, 1.97755634784698486328e-01) (142, 3.88926482200622558594e+00) (143, 3.05130863189697265625e+00) (144, 3.06528520584106445312e+00) (145, -2.11710381507873535156e+00) (146, 1.29615497589111328125e+00) (147, -6.01845383644104003906e-01) (148, -3.36593508720397949219e-01) (149, -1.58914196491241455078e+00) (150, -5.59879243373870849609e-01) (151, 2.07829399108886718750e+01) (152, 1.50000000000000000000e+03) (153, 1.29864091873168945312e+01) (154, 2.96294140815734863281e+00) (155, -1.68098855018615722656e+00) (156, -8.97360265254974365234e-01) (157, 3.09564375877380371094e+00) (158, 6.98117399215698242188e+00) (159, 3.41475307941436767578e-01) (160, 1.50000000000000000000e+03) (161, -4.15820091962814331055e-01) (0, -4.11963552236557006836e-01) (1, 2.91907727718353271484e-01) (2, 4.31339023634791374207e-03) (3, -2.83270320892333984375e+01) (4, -2.46953170776367187500e+02) (5, 1.24368596076965332031e+00) (6, -1.33973523974418640137e-01) (7, 2.53770440816879272461e-01) (8, -9.49686300009489059448e-03) (9, 1.80968105792999267578e-01) (10, -5.32997727394104003906e-01) (11, 2.88982003927230834961e-01) (12, 4.91096317768096923828e-01) (13, 1.20297171175479888916e-01) (14, 3.47457975149154663086e-02) (15, -1.57485427856445312500e+01) (16, -9.69437026977539062500e+00) (17, -1.79779171943664550781e+00) (18, 1.53747767210006713867e-01) (19, -1.42437005415558815002e-02) (20, 2.90866464376449584961e-01) (21, 2.34759196639060974121e-01) (22, -3.11897253990173339844e+00) (23, 2.16569766402244567871e-01) (24, 4.17171031236648559570e-01) (25, -5.94459772109985351562e-01) (26, 5.67663133144378662109e-01) (27, 1.50000000000000000000e+03) (28, -1.50000000000000000000e+03) (29, 1.50000000000000000000e+03) (30, 1.50000000000000000000e+03) (31, 1.50000000000000000000e+03) (32, 1.50000000000000000000e+03) (33, -9.69735351562500000000e+02) (34, 4.76754913330078125000e+01) (35, 9.08530654907226562500e+01) (36, 1.50000000000000000000e+03) (37, 1.50000000000000000000e+03) (38, 1.50000000000000000000e+03) (39, 1.50000000000000000000e+03) (40, -2.75890045166015625000e+02) (41, 1.50000000000000000000e+03) (42, -2.69276184082031250000e+02) (43, -7.93382568359375000000e+02) (44, -5.37837638854980468750e+01) (45, -6.99063598632812500000e+02) (46, -6.15331382751464843750e+01) (47, -2.92385673522949218750e+00) (48, 8.27116394042968750000e+02) (49, 7.93607616424560546875e+00) (50, -4.33701246976852416992e-01) (51, 2.49330505728721618652e-01) (52, 1.13426818847656250000e+01) (53, 7.87813842296600341797e-01) (54, 3.60066860914230346680e-01) (55, -1.76410961151123046875e+00) (56, 3.17731022834777832031e-01) (57, -1.50000000000000000000e+03) (58, 9.78975372314453125000e+01) (59, -1.33675360679626464844e+00) (60, -3.84785532951354980469e+00) (61, -1.13938369750976562500e+01) (62, -4.97174263000488281250e-01) (63, -1.91746730804443359375e+01) (64, 7.81095764160156250000e+02) (65, -2.68079137802124023438e+00) (66, -1.47982788085937500000e+01) (67, -7.39537715911865234375e+00) (68, 3.06612133979797363281e-01) (69, 1.17531016469001770020e-01) (70, -1.24002990722656250000e+02) (71, 1.74761638045310974121e-01) (72, 1.14234685897827148438e+00) (73, 9.80456650257110595703e-01) (74, -2.02812571078538894653e-02) (75, -9.79602038860321044922e-01) (76, 7.61985158920288085938e+00) (77, -4.88475710153579711914e-02) (78, -5.28788566589355468750e+01) (79, -1.72827285766601562500e+02) (80, -6.65474832057952880859e-01) (81, 3.97477120161056518555e-01) (82, 2.98795461654663085938e-01) (83, 3.39929491281509399414e-01) (84, 3.37189853191375732422e-01) (85, -3.31499862670898437500e+01) (86, 3.87872755527496337891e-01) (87, 7.35632836818695068359e-01) (88, -1.79328870773315429688e+00) (89, -4.03135940432548522949e-02) (90, 1.87059164047241210938e+00) (91, -1.28052949905395507812e+01) (92, -2.52181850373744964600e-02) (93, -1.46526861190795898438e+00) (94, 5.59160499572753906250e+01) (95, -4.61633086204528808594e-01) (96, 1.75697550177574157715e-01) (97, -4.03068006038665771484e-01) (98, 1.90589372068643569946e-02) (99, -7.32809305191040039062e-03) (100, 8.53854084014892578125e+00) (101, 1.89165800809860229492e-01) (102, -6.50640189647674560547e-01) (103, -1.35242652893066406250e+00) (104, 1.16151891648769378662e-01) (105, -4.11888742446899414062e+00) (106, -5.28169155120849609375e-01) (107, -1.49973154067993164062e-01) (108, 1.80364913940429687500e+02) (109, -2.38805651664733886719e+00) (110, 8.66203829646110534668e-02) (111, 1.50000000000000000000e+03) (112, 1.50000000000000000000e+03) (113, 3.76299171447753906250e+01) (114, 1.50000000000000000000e+03) (115, 4.32517433166503906250e+01) (116, 2.25032291412353515625e+01) (117, -1.06768226623535156250e+00) (118, 6.51960086822509765625e+00) (119, -7.27083906531333923340e-02) (120, 1.50000000000000000000e+03) (121, 1.50000000000000000000e+03) (122, 4.09559154510498046875e+00) (123, 1.50000000000000000000e+03) (124, -1.11941671371459960938e+01) (125, -7.66618537902832031250e+00) (126, -4.77324157953262329102e-01) (127, -4.98837262392044067383e-01) (128, -4.36222441494464874268e-02) (129, 9.64065074920654296875e-01) (130, 5.34020996093750000000e+00) (131, -2.25802302360534667969e-01) (132, -7.14749004691839218140e-03) (133, -9.84277188777923583984e-01) (134, 1.02931015193462371826e-01) (135, 2.21067428588867187500e+01) (136, 1.42211392521858215332e-01) (137, -5.65256357192993164062e+00) (138, 1.50000000000000000000e+03) (139, 1.59723353385925292969e+00) (140, 1.50000000000000000000e+03) (141, 1.92775974273681640625e+01) (142, -6.10028553009033203125e+00) (143, -6.06918156147003173828e-01) (144, -7.59477674961090087891e-01) (145, -1.96436679363250732422e+00) (146, 3.25248539447784423828e-01) (147, -4.25574332475662231445e-01) (148, -9.13911819458007812500e-01) (149, -9.67119410634040832520e-02) (150, 2.04968139529228210449e-01) (151, 5.66469579935073852539e-02) (152, 1.50000000000000000000e+03) (153, -2.86122131347656250000e+02) (154, 7.91642606258392333984e-01) (155, 1.26560464501380920410e-01) (156, -1.57380715012550354004e-01) (157, -1.77978157997131347656e+00) (158, -4.05434846878051757812e+00) (159, -1.16932325065135955811e-01) (160, 1.50000000000000000000e+03) (161, 2.50918507575988769531e-01) (0, -7.41417050361633300781e-01) (1, -1.21544003486633300781e-01) (2, -3.83886396884918212891e-01) (3, -9.26492214202880859375e+00) (4, 9.07436847686767578125e+00) (5, 1.22459373474121093750e+01) (6, -6.44998967647552490234e-01) (7, -5.14949321746826171875e-01) (8, -3.58322471380233764648e-01) (9, -3.74979317188262939453e-01) (10, -1.79393458366394042969e+00) (11, 9.06330533325672149658e-03) (12, -8.04226756095886230469e-01) (13, -1.40888833999633789062e+00) (14, -3.01589250564575195312e-01) (15, 2.38119214773178100586e-01) (16, -3.23820233345031738281e+00) (17, -1.96734833717346191406e+00) (18, 3.15686154365539550781e+00) (19, -2.34413668513298034668e-01) (20, 1.88029900193214416504e-01) (21, -8.48953342437744140625e+00) (22, 5.38719367980957031250e+00) (23, -8.96107733249664306641e-01) (24, -6.17443561553955078125e+00) (25, -4.19994783401489257812e+00) (26, -1.72794663906097412109e+00) (27, 1.50000000000000000000e+03) (28, -7.37281066894531250000e+02) (29, 1.50000000000000000000e+03) (30, 1.50000000000000000000e+03) (31, 1.50000000000000000000e+03) (32, 1.50000000000000000000e+03) (33, -6.97299423217773437500e+01) (34, 1.15682287216186523438e+01) (35, 1.04037322998046875000e+01) (36, 1.50000000000000000000e+03) (37, 1.50000000000000000000e+03) (38, 1.50000000000000000000e+03) (39, 1.50000000000000000000e+03) (40, 3.04479309082031250000e+02) (41, 1.50000000000000000000e+03) (42, 4.53970458984375000000e+02) (43, -1.00038774311542510986e-01) (44, 2.28890056610107421875e+01) (45, 1.00957992553710937500e+02) (46, 3.83028912544250488281e+00) (47, -8.31339955329895019531e-01) (48, -8.23771911621093750000e+02) (49, 1.86164993286132812500e+02) (50, 